tree
version=v4
num_class=6
num_tree_per_iteration=6
label_index=0
max_feature_idx=5
objective=multiclass num_class:6
feature_names=humidity temperature light_levels time_of_day day_of_week hour
feature_infos=[0.55221171236023991:97.178208272096086] [-35.873377466173793:78.426432392062082] [607.39006154624246:118278.05449327208] none [1:7] [0:23]
tree_sizes=345 341 342 343 338 345 341 340 339 340 341 342 342 339 338 338 341 343 342 339 339 338 446 342 342 342 342 341 446 343 342 342 340 340 445 341 342 342 342 341 445 451 342 342 341 341 446 343 342 342 342 341 447 451 342 342 341 342 443 344 342 342 340 342 442 343 341 341 342 341 442 452 341 342 342 342 442 345 342 341 341 342 442 343 342 342 341 341 443 345 342 444 342 341 443 345 341 342 342 341 446 451 342 442 343 343 442 452 343 342 342 343 446 451 342 343 342 343 447 451 344 442 343 342 448 344 344 343 344 342 446 454 341 343 344 341 447 346 343 343 443 343 345 453 342 447 343 344 450 346 342 344 444 342 451 454 343 343 344 343 344 345 343 443 440 344 342 453 344 343 344 446 449 346 342 445 443 451 450 453 343 443 344 450 450 346 344 446 342 343 343 346 344 444 443 450 343 223 344 344 343 450 345 223 342 344 443 449 343 223 342 445 344 345 344 223 342 343 344 449 345 223 342 446 442 447 343 223 344 449 344 345 342 223 344 446 344 448 342 223 343 342 342 345 344 345 344 449 344 449 344 223 344 344 344 345 343 346 343 342 345 450 343 223 342 446 344 448 344 223 344 344 445 344 344 223 344 343 345 449 345 223 343 343 344 449 343 223 344 447 445 343 343 223 344 344 443 449 344 223 344 449 341 450 345 223 344 448 345 346 343 223 344 343 344 345 343 223 344 342 441 346 346 223 343 447 344 344 345 223 343 344 343 345 344 223 343 447 344 345 344 223 343 449 344 345 345 223 343 344 443 346 450 223 344 446 344 346 344 223 344 345 443 345 345 223 344 344 344 345 345 223 343 447 344 345 344 223 344 447 344 346 343 223 345 343 345 345 451 223 343 345 343 451 345 223 344 446 344 346 342 223 344 345 446 345 452 223 343 447 344 346 344 223 342 445 345 347 345 223 344 447 343 345 343 223 343 448 344 347 453 346 344 446 344 450 345 223 344 449 344 448 345 223 344 446 344 345 345 223 344 448 343 346 344 345 345 446 344 346 345 345 345 453 345 345 453 223 345 449 343 347 344 223 344 342 346 346 344 346 345 447 447 347 344 223 346 452 344 347 452 223 346 453 345 345 345 345 346 344 345 448 345 223 345 447 344 347 345 223 346 342 345 347 345 223 345 448 345 447 342 223 346 346 345 347 453 223 345 344 346 347 345 223 345 449 346 346 342 223 346 448 346 347 344 223 345 446 446 347 345 223 342 345 344 450 345 344 345 451 343 448 342 223 346 346 345 450 344 223 346 450 345 346 345 223 346 450 343 347 345 223 345 450 345 347 344 223 345 448 346 347 345 223 346 451 346 450 452 223

Tree=0
num_leaves=2
num_cat=0
split_feature=1
split_gain=12.4644
threshold=20.564680911492911
decision_type=2
left_child=-1
right_child=-2
leaf_value=-0.76627933407508642 -0.94078076912206621
leaf_weight=8.8163262605667132 7.640816092491149
leaf_count=30 26
internal_value=-0.847298
internal_weight=0
internal_count=56
is_linear=0
shrinkage=1


Tree=1
num_leaves=2
num_cat=0
split_feature=1
split_gain=10.08
threshold=31.464383183544751
decision_type=2
left_child=-1
right_child=-2
leaf_value=-2.3269255578692265 -2.0655922205984547
leaf_weight=4.1326529681682587 2.2959183156490326
leaf_count=36 20
internal_value=-2.23359
internal_weight=0
internal_count=56
is_linear=0
shrinkage=1


Tree=2
num_leaves=2
num_cat=0
split_feature=5
split_gain=22.7642
threshold=9.0000000000000018
decision_type=2
left_child=-1
right_child=-2
leaf_value=-1.1655399729100751 -1.4311226208431034
leaf_weight=5.6479593515396118 7.5306124687194824
leaf_count=24 32
internal_value=-1.3173
internal_weight=0
internal_count=56
is_linear=0
shrinkage=1


Tree=3
num_leaves=2
num_cat=0
split_feature=1
split_gain=4.75472
threshold=31.464383183544751
decision_type=2
left_child=-1
right_child=-2
leaf_value=-3.0147897184193826 -2.7682488286529314
leaf_weight=2.1903060972690587 1.2168367207050321
leaf_count=36 20
internal_value=-2.92674
internal_weight=0
internal_count=56
is_linear=0
shrinkage=1


Tree=4
num_leaves=2
num_cat=0
split_feature=5
split_gain=12
threshold=17.500000000000004
decision_type=2
left_child=-1
right_child=-2
leaf_value=-2.1746796412429847 -1.9080129624661675
leaf_weight=4.7249997854232788 2.6249998807907104
leaf_count=36 20
internal_value=-2.07944
internal_weight=0
internal_count=56
is_linear=0
shrinkage=1


Tree=5
num_leaves=2
num_cat=0
split_feature=5
split_gain=1.52727
threshold=17.500000000000004
decision_type=2
left_child=-1
right_child=-2
leaf_value=-4.1102001822884731 -3.8726244143470354
leaf_weight=0.75765303522348404 0.42091835290193558
leaf_count=36 20
internal_value=-4.02535
internal_weight=0
internal_count=56
is_linear=0
shrinkage=1


Tree=6
num_leaves=2
num_cat=0
split_feature=1
split_gain=9.88611
threshold=20.564680911492911
decision_type=2
left_child=-1
right_child=-2
leaf_value=0.071494839171316257 -0.084509478882301314
leaf_weight=8.9191188812255877 7.4594246447086325
leaf_count=30 26
internal_value=0
internal_weight=0
internal_count=56
is_linear=0
shrinkage=0.1


Tree=7
num_leaves=2
num_cat=0
split_feature=1
split_gain=9.96599
threshold=33.163864797429078
decision_type=2
left_child=-1
right_child=-2
leaf_value=-0.092524135127355009 0.16767615399559374
leaf_weight=4.1569528728723526 2.2789876461029053
leaf_count=39 17
internal_value=0
internal_weight=0
internal_count=56
is_linear=0
shrinkage=0.1


Tree=8
num_leaves=2
num_cat=0
split_feature=5
split_gain=18.3733
threshold=9.0000000000000018
decision_type=2
left_child=-1
right_child=-2
leaf_value=0.12732338146839051 -0.10999040955349304
leaf_weight=6.0765440165996552 7.0446271449327469
leaf_count=24 32
internal_value=0
internal_weight=0
internal_count=56
is_linear=0
shrinkage=0.1


Tree=9
num_leaves=2
num_cat=0
split_feature=5
split_gain=5.02179
threshold=17.500000000000004
decision_type=2
left_child=-1
right_child=-2
leaf_value=-0.088270664879600294 0.16690192656288361
leaf_weight=2.2365782223641877 1.1771649122238157
leaf_count=36 20
internal_value=0
internal_weight=0
internal_count=56
is_linear=0
shrinkage=0.1


Tree=10
num_leaves=2
num_cat=0
split_feature=5
split_gain=9.19563
threshold=17.500000000000004
decision_type=2
left_child=-1
right_child=-2
leaf_value=-0.093948447105454996 0.13327632601172187
leaf_weight=4.3232845067977905 3.0287556052207947
leaf_count=36 20
internal_value=0
internal_weight=0
internal_count=56
is_linear=0
shrinkage=0.1


Tree=11
num_leaves=2
num_cat=0
split_feature=5
split_gain=1.55917
threshold=18.500000000000004
decision_type=2
left_child=-1
right_child=-2
leaf_value=-0.084752645293222392 0.15599129260188394
leaf_weight=0.76553447172045708 0.4147773701697588
leaf_count=39 17
internal_value=0
internal_weight=0
internal_count=56
is_linear=0
shrinkage=0.1


Tree=12
num_leaves=2
num_cat=0
split_feature=1
split_gain=8.08537
threshold=20.564680911492911
decision_type=2
left_child=-1
right_child=-2
leaf_value=0.064467891731660468 -0.077527356316721488
leaf_weight=8.9560966491699237 7.2613014578819266
leaf_count=30 26
internal_value=0
internal_weight=0
internal_count=56
is_linear=0
shrinkage=0.1


Tree=13
num_leaves=2
num_cat=0
split_feature=1
split_gain=7.49847
threshold=33.163864797429078
decision_type=2
left_child=-1
right_child=-2
leaf_value=-0.091542361175264195 0.1279306151354101
leaf_weight=3.7743879929184914 2.649476945400238
leaf_count=39 17
internal_value=0
internal_weight=0
internal_count=56
is_linear=0
shrinkage=0.1


Tree=14
num_leaves=2
num_cat=0
split_feature=5
split_gain=14.9656
threshold=9.0000000000000018
decision_type=2
left_child=-1
right_child=-2
leaf_value=0.1082599026097969 -0.10670277267107141
leaf_weight=6.4145149886608124 6.541424348950386
leaf_count=24 32
internal_value=0
internal_weight=0
internal_count=56
is_linear=0
shrinkage=0.1


Tree=15
num_leaves=2
num_cat=0
split_feature=2
split_gain=4.30711
threshold=41416.555539775167
decision_type=2
left_child=-1
right_child=-2
leaf_value=0.14323305100324385 -0.088182053621601739
leaf_weight=1.2955477014184 2.1209450550377369
leaf_count=21 35
internal_value=0
internal_weight=0
internal_count=56
is_linear=0
shrinkage=0.1


Tree=16
num_leaves=2
num_cat=0
split_feature=5
split_gain=10.0537
threshold=18.500000000000004
decision_type=2
left_child=-1
right_child=-2
leaf_value=-0.093728933553724442 0.14703418666009771
leaf_weight=4.4732510149478912 2.8327011168003082
leaf_count=39 17
internal_value=0
internal_weight=0
internal_count=56
is_linear=0
shrinkage=0.1


Tree=17
num_leaves=2
num_cat=0
split_feature=0
split_gain=1.32837
threshold=32.060320349630963
decision_type=2
left_child=-1
right_child=-2
leaf_value=0.13281771732500511 -0.084908101770586775
leaf_weight=0.45913355425000191 0.71911385655403137
leaf_count=21 35
internal_value=0
internal_weight=0
internal_count=56
is_linear=0
shrinkage=0.1


Tree=18
num_leaves=2
num_cat=0
split_feature=1
split_gain=6.63315
threshold=20.564680911492911
decision_type=2
left_child=-1
right_child=-2
leaf_value=0.058376005652122143 -0.071336869301431349
leaf_weight=8.9554359912872297 7.0426096618175515
leaf_count=30 26
internal_value=0
internal_weight=0
internal_count=56
is_linear=0
shrinkage=0.1


Tree=19
num_leaves=2
num_cat=0
split_feature=1
split_gain=5.85404
threshold=33.163864797429078
decision_type=2
left_child=-1
right_child=-2
leaf_value=-0.090678446849319097 0.10138183842319037
leaf_weight=3.423132412135601 2.958721324801445
leaf_count=39 17
internal_value=0
internal_weight=0
internal_count=56
is_linear=0
shrinkage=0.1


Tree=20
num_leaves=2
num_cat=0
split_feature=5
split_gain=12.5194
threshold=9.0000000000000018
decision_type=2
left_child=-1
right_child=-2
leaf_value=0.094572952070413163 -0.10406541888679202
leaf_weight=6.64358189702034 6.0735834091901779
leaf_count=24 32
internal_value=0
internal_weight=0
internal_count=56
is_linear=0
shrinkage=0.1


Tree=21
num_leaves=2
num_cat=0
split_feature=5
split_gain=3.86774
threshold=17.500000000000004
decision_type=2
left_child=-1
right_child=-2
leaf_value=-0.087880639457879051 0.12922118413587
leaf_weight=2.0367489010095601 1.3742972724139688
leaf_count=36 20
internal_value=0
internal_weight=0
internal_count=56
is_linear=0
shrinkage=0.1


Tree=22
num_leaves=3
num_cat=0
split_feature=5 5
split_gain=11.4018 0.00348635
threshold=20.000000000000004 9.0000000000000018
decision_type=2 2
left_child=1 -1
right_child=-2 -3
leaf_value=-0.091285163345922279 0.16780159891504765 -0.096756325834335521
leaf_weight=2.2797211110591888 2.5842633098363876 2.3812598511576653
leaf_count=24 14 18
internal_value=0 -0.0940803
internal_weight=0 4.66098
internal_count=56 42
is_linear=0
shrinkage=0.1


Tree=23
num_leaves=2
num_cat=0
split_feature=0
split_gain=1.42762
threshold=30.036688731471514
decision_type=2
left_child=-1
right_child=-2
leaf_value=0.14303749192590637 -0.084841861514984865
leaf_weight=0.4381687119603157 0.73788127116858959
leaf_count=18 38
internal_value=0
internal_weight=0
internal_count=56
is_linear=0
shrinkage=0.1


Tree=24
num_leaves=2
num_cat=0
split_feature=2
split_gain=6.04505
threshold=60886.324891688557
decision_type=2
left_child=-1
right_child=-2
leaf_value=-0.064201821650303734 0.059956109748420784
leaf_weight=7.3876650780439386 8.3581013381481153
leaf_count=27 29
internal_value=0
internal_weight=0
internal_count=56
is_linear=0
shrinkage=0.1


Tree=25
num_leaves=2
num_cat=0
split_feature=1
split_gain=4.67365
threshold=33.163864797429078
decision_type=2
left_child=-1
right_child=-2
leaf_value=-0.089917561390836925 0.082100858804379673
leaf_weight=3.1006253436207771 3.2194117307662964
leaf_count=39 17
internal_value=0
internal_weight=0
internal_count=56
is_linear=0
shrinkage=0.1


Tree=26
num_leaves=2
num_cat=0
split_feature=2
split_gain=11.6462
threshold=60886.324891688557
decision_type=2
left_child=-1
right_child=-2
leaf_value=0.093989109442326246 -0.099680859257645762
leaf_weight=6.3642104417085648 6.0630505234003067
leaf_count=27 29
internal_value=0
internal_weight=0
internal_count=56
is_linear=0
shrinkage=0.1


Tree=27
num_leaves=2
num_cat=0
split_feature=1
split_gain=3.73462
threshold=31.464383183544751
decision_type=2
left_child=-1
right_child=-2
leaf_value=-0.087999931967501652 0.12504244131816866
leaf_weight=1.9982111044228079 1.3988803029060362
leaf_count=36 20
internal_value=0
internal_weight=0
internal_count=56
is_linear=0
shrinkage=0.1


Tree=28
num_leaves=3
num_cat=0
split_feature=5 5
split_gain=9.16386 0.00308921
threshold=20.000000000000004 9.0000000000000018
decision_type=2 2
left_child=1 -1
right_child=-2 -3
leaf_value=-0.090365945037839152 0.13794436144662078 -0.095737505058050676
leaf_weight=2.0515115410089493 2.8586542755365372 2.2392946258187294
leaf_count=24 14 18
internal_value=0 -0.0931693
internal_weight=0 4.29081
internal_count=56 42
is_linear=0
shrinkage=0.1


Tree=29
num_leaves=2
num_cat=0
split_feature=5
split_gain=1.28994
threshold=18.500000000000004
decision_type=2
left_child=-1
right_child=-2
leaf_value=-0.084768069359908743 0.12960047460116536
leaf_weight=0.70823533367365599 0.46500551141798496
leaf_count=39 17
internal_value=0
internal_weight=0
internal_count=56
is_linear=0
shrinkage=0.1


Tree=30
num_leaves=2
num_cat=0
split_feature=1
split_gain=5.11576
threshold=20.564680911492911
decision_type=2
left_child=-1
right_child=-2
leaf_value=0.051295051283347215 -0.064433024289352617
leaf_weight=8.8856408894062024 6.6998381763696679
leaf_count=30 26
internal_value=0
internal_weight=0
internal_count=56
is_linear=0
shrinkage=0.1


Tree=31
num_leaves=2
num_cat=0
split_feature=2
split_gain=4.21228
threshold=52571.286394686031
decision_type=2
left_child=-1
right_child=-2
leaf_value=-0.096627573626720004 0.069710931997414224
leaf_weight=2.6680146157741547 3.5455608740448952
leaf_count=24 32
internal_value=0
internal_weight=0
internal_count=56
is_linear=0
shrinkage=0.1


Tree=32
num_leaves=2
num_cat=0
split_feature=5
split_gain=9.87855
threshold=9.0000000000000018
decision_type=2
left_child=-1
right_child=-2
leaf_value=0.079183099753245653 -0.1012444187701278
leaf_weight=6.8413452208042145 5.4533607512712479
leaf_count=24 32
internal_value=0
internal_weight=0
internal_count=56
is_linear=0
shrinkage=0.1


Tree=33
num_leaves=2
num_cat=0
split_feature=2
split_gain=3.41592
threshold=41416.555539775167
decision_type=2
left_child=-1
right_child=-2
leaf_value=0.11501668416217137 -0.087979896368252583
leaf_weight=1.4655650630593302 1.908356789499521
leaf_count=21 35
internal_value=0
internal_weight=0
internal_count=56
is_linear=0
shrinkage=0.1


Tree=34
num_leaves=3
num_cat=0
split_feature=5 5
split_gain=7.6123 0.00235467
threshold=20.000000000000004 9.0000000000000018
decision_type=2 2
left_child=1 -1
right_child=-2 -3
leaf_value=-0.089706623068461833 0.11750001866033551 -0.094589128783447787
leaf_weight=1.8866284862160685 3.0724108666181564 2.0731280222535133
leaf_count=24 14 18
internal_value=0 -0.0922629
internal_weight=0 3.95976
internal_count=56 42
is_linear=0
shrinkage=0.1


Tree=35
num_leaves=2
num_cat=0
split_feature=0
split_gain=1.13342
threshold=30.036688731471514
decision_type=2
left_child=-1
right_child=-2
leaf_value=0.1143305801128993 -0.084767204110152802
leaf_weight=0.50019778497517109 0.6674859132617712
leaf_count=18 38
internal_value=0
internal_weight=0
internal_count=56
is_linear=0
shrinkage=0.1


Tree=36
num_leaves=2
num_cat=0
split_feature=2
split_gain=4.50155
threshold=60886.324891688557
decision_type=2
left_child=-1
right_child=-2
leaf_value=-0.056839500276251079 0.051885835570151431
leaf_weight=7.0236650407314309 8.3176103681325895
leaf_count=27 29
internal_value=0
internal_weight=0
internal_count=56
is_linear=0
shrinkage=0.1


Tree=37
num_leaves=2
num_cat=0
split_feature=1
split_gain=3.86542
threshold=33.163864797429078
decision_type=2
left_child=-1
right_child=-2
leaf_value=-0.089247808623837535 0.069477343690857271
leaf_weight=2.8032472692430019 3.3893532902002335
leaf_count=39 17
internal_value=0
internal_weight=0
internal_count=56
is_linear=0
shrinkage=0.1


Tree=38
num_leaves=2
num_cat=0
split_feature=2
split_gain=9.02823
threshold=60886.324891688557
decision_type=2
left_child=-1
right_child=-2
leaf_value=0.078358425894585373 -0.096049409161902535
leaf_weight=6.5138398259878159 5.4524771273136139
leaf_count=27 29
internal_value=0
internal_weight=0
internal_count=56
is_linear=0
shrinkage=0.1


Tree=39
num_leaves=2
num_cat=0
split_feature=5
split_gain=3.31548
threshold=17.500000000000004
decision_type=2
left_child=-1
right_child=-2
leaf_value=-0.087847616054810743 0.11201008510627466
leaf_weight=1.8891472071409228 1.4805939160287378
leaf_count=36 20
internal_value=0
internal_weight=0
internal_count=56
is_linear=0
shrinkage=0.1


Tree=40
num_leaves=3
num_cat=0
split_feature=5 5
split_gain=6.36633 0.00208827
threshold=20.000000000000004 9.0000000000000018
decision_type=2 2
left_child=1 -1
right_child=-2 -3
leaf_value=-0.088988725975079286 0.10087693857170393 -0.093789172289836298
leaf_weight=1.696767181158066 3.2568709552288055 1.9449441060423849
leaf_count=24 14 18
internal_value=0 -0.0915525
internal_weight=0 3.64171
internal_count=56 42
is_linear=0
shrinkage=0.1


Tree=41
num_leaves=3
num_cat=0
split_feature=0 0
split_gain=1.33479 4.84291e-06
threshold=22.545298798117638 51.476896216046597
decision_type=2 2
left_child=-1 -2
right_child=1 -3
leaf_value=0.13463606774051645 -0.085111694961626155 -0.084590158437975516
leaf_weight=0.45351230353116989 0.35558974556624889 0.35660329088568687
leaf_count=15 18 23
internal_value=0 -0.0848506
internal_weight=0 0.712193
internal_count=56 41
is_linear=0
shrinkage=0.1


Tree=42
num_leaves=2
num_cat=0
split_feature=1
split_gain=4.19971
threshold=20.564680911492911
decision_type=2
left_child=-1
right_child=-2
leaf_value=0.046969047510074947 -0.059639738122888787
leaf_weight=8.7554066777229291 6.3934789448976526
leaf_count=30 26
internal_value=0
internal_weight=0
internal_count=56
is_linear=0
shrinkage=0.1


Tree=43
num_leaves=2
num_cat=0
split_feature=5
split_gain=3.65576
threshold=9.0000000000000018
decision_type=2
left_child=-1
right_child=-2
leaf_value=-0.096405064766130685 0.061648993259861687
leaf_weight=2.4504415579140186 3.6331220380961895
leaf_count=24 32
internal_value=0
internal_weight=0
internal_count=56
is_linear=0
shrinkage=0.1


Tree=44
num_leaves=2
num_cat=0
split_feature=5
split_gain=7.9619
threshold=9.0000000000000018
decision_type=2
left_child=-1
right_child=-2
leaf_value=0.067538945627313884 -0.099372535440105172
leaf_weight=6.8868235349655151 4.8850867003202438
leaf_count=24 32
internal_value=0
internal_weight=0
internal_count=56
is_linear=0
shrinkage=0.1


Tree=45
num_leaves=2
num_cat=0
split_feature=1
split_gain=3.18027
threshold=31.464383183544751
decision_type=2
left_child=-1
right_child=-2
leaf_value=-0.088003967161069327 0.10810519816349606
leaf_weight=1.8315852321684363 1.5075724050402639
leaf_count=36 20
internal_value=0
internal_weight=0
internal_count=56
is_linear=0
shrinkage=0.1


Tree=46
num_leaves=3
num_cat=0
split_feature=5 5
split_gain=5.50163 0.00172735
threshold=20.000000000000004 11.500000000000002
decision_type=2 2
left_child=1 -1
right_child=-2 -3
leaf_value=-0.088670090397432497 0.089909569445837376 -0.093220567810646485
leaf_weight=1.8033389747142794 3.385334238409996 1.5522194504737852
leaf_count=27 14 15
internal_value=0 -0.0907751
internal_weight=0 3.35556
internal_count=56 42
is_linear=0
shrinkage=0.1


Tree=47
num_leaves=2
num_cat=0
split_feature=5
split_gain=1.14985
threshold=18.500000000000004
decision_type=2
left_child=-1
right_child=-2
leaf_value=-0.084883192609299052 0.11656581644418013
leaf_weight=0.66513201780617237 0.49362296238541603
leaf_count=39 17
internal_value=0
internal_weight=0
internal_count=56
is_linear=0
shrinkage=0.1


Tree=48
num_leaves=2
num_cat=0
split_feature=1
split_gain=3.53295
threshold=20.564680911492911
decision_type=2
left_child=-1
right_child=-2
leaf_value=0.043583122296981559 -0.055241107489508036
leaf_weight=8.6906584501266462 6.1970672458410272
leaf_count=30 26
internal_value=0
internal_weight=0
internal_count=56
is_linear=0
shrinkage=0.1


Tree=49
num_leaves=2
num_cat=0
split_feature=2
split_gain=3.28413
threshold=52571.286394686031
decision_type=2
left_child=-1
right_child=-2
leaf_value=-0.095486131106190072 0.056031489247187996
leaf_weight=2.3296557515859604 3.7064611986279488
leaf_count=24 32
internal_value=0
internal_weight=0
internal_count=56
is_linear=0
shrinkage=0.1


Tree=50
num_leaves=2
num_cat=0
split_feature=2
split_gain=7.15989
threshold=60886.324891688557
decision_type=2
left_child=-1
right_child=-2
leaf_value=0.066538435041881352 -0.093452677588647087
leaf_weight=6.4987397938966751 4.9108304977416992
leaf_count=27 29
internal_value=0
internal_weight=0
internal_count=56
is_linear=0
shrinkage=0.1


Tree=51
num_leaves=2
num_cat=0
split_feature=5
split_gain=2.95549
threshold=17.500000000000004
decision_type=2
left_child=-1
right_child=-2
leaf_value=-0.087777108992200967 0.10120220061220245
leaf_weight=1.7708971928805115 1.5535589866340158
leaf_count=36 20
internal_value=0
internal_weight=0
internal_count=56
is_linear=0
shrinkage=0.1


Tree=52
num_leaves=3
num_cat=0
split_feature=5 5
split_gain=4.74299 0.00143324
threshold=20.000000000000004 11.500000000000002
decision_type=2 2
left_child=1 -1
right_child=-2 -3
leaf_value=-0.088138941999925419 0.079955146787917236 -0.092459817833296848
leaf_weight=1.6365951932966711 3.4992796182632446 1.4458821490406988
leaf_count=27 14 15
internal_value=0 -0.0901657
internal_weight=0 3.08248
internal_count=56 42
is_linear=0
shrinkage=0.1


Tree=53
num_leaves=3
num_cat=0
split_feature=0 5
split_gain=1.08048 1.59153e-05
threshold=22.545298798117638 18.500000000000004
decision_type=2 2
left_child=-1 -2
right_child=1 -3
leaf_value=0.11002847265463096 -0.084304408902439065 -0.085297171334283606
leaf_weight=0.50892507657408714 0.32356780208647251 0.32236340269446373
leaf_count=15 28 13
internal_value=0 -0.0847999
internal_weight=0 0.645931
internal_count=56 41
is_linear=0
shrinkage=0.1


Tree=54
num_leaves=2
num_cat=0
split_feature=2
split_gain=3.14723
threshold=60886.324891688557
decision_type=2
left_child=-1
right_child=-2
leaf_value=-0.049215520835240209 0.044095830593050028
leaf_weight=6.5095556825399408 8.1276796162128431
leaf_count=27 29
internal_value=0
internal_weight=0
internal_count=56
is_linear=0
shrinkage=0.1


Tree=55
num_leaves=2
num_cat=0
split_feature=1
split_gain=3.11708
threshold=33.163864797429078
decision_type=2
left_child=-1
right_child=-2
leaf_value=-0.088734758640806946 0.057676953799122355
leaf_weight=2.4879786968231201 3.4992686808109283
leaf_count=39 17
internal_value=0
internal_weight=0
internal_count=56
is_linear=0
shrinkage=0.1


Tree=56
num_leaves=2
num_cat=0
split_feature=5
split_gain=6.41541
threshold=9.0000000000000018
decision_type=2
left_child=-1
right_child=-2
leaf_value=0.057735985267343741 -0.097772432128483286
leaf_weight=6.8118940889835358 4.345035508275032
leaf_count=24 32
internal_value=0
internal_weight=0
internal_count=56
is_linear=0
shrinkage=0.1


Tree=57
num_leaves=2
num_cat=0
split_feature=2
split_gain=2.73833
threshold=41416.555539775167
decision_type=2
left_child=-1
right_child=-2
leaf_value=0.094217663054325454 -0.088076457965040239
leaf_weight=1.6080613769590857 1.6900801733136175
leaf_count=21 35
internal_value=0
internal_weight=0
internal_count=56
is_linear=0
shrinkage=0.1


Tree=58
num_leaves=3
num_cat=0
split_feature=5 5
split_gain=11.0719 0.0455583
threshold=22.500000000000004 17.500000000000004
decision_type=2 2
left_child=1 -1
right_child=-2 -3
leaf_value=-0.088118154418395822 0.17494907066529497 -0.10928532100955185
leaf_weight=2.1436098404228687 2.3339873999357224 1.9343833327293394
leaf_count=36 9 11
internal_value=0 -0.0981587
internal_weight=0 4.07799
internal_count=56 47
is_linear=0
shrinkage=0.1


Tree=59
num_leaves=2
num_cat=0
split_feature=5
split_gain=0.998431
threshold=18.500000000000004
decision_type=2
left_child=-1
right_child=-2
leaf_value=-0.084894111964850999 0.10234213261065582
leaf_weight=0.61696395045146346 0.52898548729717731
leaf_count=39 17
internal_value=0
internal_weight=0
internal_count=56
is_linear=0
shrinkage=0.1


Tree=60
num_leaves=2
num_cat=0
split_feature=1
split_gain=2.89002
threshold=20.564680911492911
decision_type=2
left_child=-1
right_child=-2
leaf_value=0.040054039283332919 -0.051030290175400596
leaf_weight=8.4970834851264936 5.9038152247667322
leaf_count=30 26
internal_value=0
internal_weight=0
internal_count=56
is_linear=0
shrinkage=0.1


Tree=61
num_leaves=2
num_cat=0
split_feature=5
split_gain=2.82825
threshold=9.0000000000000018
decision_type=2
left_child=-1
right_child=-2
leaf_value=-0.095242076096793693 0.049324699777630508
leaf_weight=2.1196420267224312 3.7428089082241058
leaf_count=24 32
internal_value=0
internal_weight=0
internal_count=56
is_linear=0
shrinkage=0.1


Tree=62
num_leaves=2
num_cat=0
split_feature=2
split_gain=5.79243
threshold=60886.324891688557
decision_type=2
left_child=-1
right_child=-2
leaf_value=0.05806537284078233 -0.09070153141307051
leaf_weight=6.3698129951953888 4.4427178949117661
leaf_count=27 29
internal_value=0
internal_weight=0
internal_count=56
is_linear=0
shrinkage=0.1


Tree=63
num_leaves=2
num_cat=0
split_feature=1
split_gain=2.62846
threshold=31.464383183544751
decision_type=2
left_child=-1
right_child=-2
leaf_value=-0.088074684197329806 0.091122891166274506
leaf_weight=1.6470285728573801 1.6272274330258367
leaf_count=36 20
internal_value=0
internal_weight=0
internal_count=56
is_linear=0
shrinkage=0.1


Tree=64
num_leaves=3
num_cat=0
split_feature=5 5
split_gain=9.11117 0.0334126
threshold=22.500000000000004 17.500000000000004
decision_type=2 2
left_child=1 -1
right_child=-2 -3
leaf_value=-0.087660386420970487 0.15047607969738236 -0.10650095549782322
leaf_weight=1.9523375853896141 2.4658107161521912 1.8176222071051598
leaf_count=36 9 11
internal_value=0 -0.096744
internal_weight=0 3.76996
internal_count=56 47
is_linear=0
shrinkage=0.1


Tree=65
num_leaves=2
num_cat=0
split_feature=2
split_gain=0.90881
threshold=65458.529740453254
decision_type=2
left_child=-1
right_child=-2
leaf_value=-0.085439077610220363 0.092957344858815058
leaf_weight=0.5857421550899744 0.55721882311627269
leaf_count=30 26
internal_value=0
internal_weight=0
internal_count=56
is_linear=0
shrinkage=0.1


Tree=66
num_leaves=2
num_cat=0
split_feature=1
split_gain=2.38462
threshold=20.564680911492911
decision_type=2
left_child=-1
right_child=-2
leaf_value=0.036552882888646214 -0.047216101778025411
leaf_weight=8.378692224621771 5.7168979197740564
leaf_count=30 26
internal_value=0
internal_weight=0
internal_count=56
is_linear=0
shrinkage=0.1


Tree=67
num_leaves=2
num_cat=0
split_feature=4
split_gain=2.67264
threshold=4.5000000000000009
decision_type=2
left_child=-1
right_child=-2
leaf_value=-0.067327657702918958 0.068787223851192847
leaf_weight=3.064381193369627 2.7256093248724937
leaf_count=33 23
internal_value=0
internal_weight=0
internal_count=56
is_linear=0
shrinkage=0.1


Tree=68
num_leaves=2
num_cat=0
split_feature=5
split_gain=5.30971
threshold=9.0000000000000018
decision_type=2
left_child=-1
right_child=-2
leaf_value=0.050651152537805715 -0.096577127043659991
leaf_weight=6.6728908717632294 3.8703255355358124
leaf_count=24 32
internal_value=0
internal_weight=0
internal_count=56
is_linear=0
shrinkage=0.1


Tree=69
num_leaves=2
num_cat=0
split_feature=5
split_gain=2.6332
threshold=17.500000000000004
decision_type=2
left_child=-1
right_child=-2
leaf_value=-0.087735950899005835 0.092708031764415486
leaf_weight=1.6318362187594178 1.6033076606690881
leaf_count=36 20
internal_value=0
internal_weight=0
internal_count=56
is_linear=0
shrinkage=0.1


Tree=70
num_leaves=3
num_cat=0
split_feature=5 5
split_gain=7.77915 0.0239554
threshold=22.500000000000004 17.500000000000004
decision_type=2 2
left_child=1 -1
right_child=-2 -3
leaf_value=-0.087290571283871299 0.13486543730122735 -0.1038911640764912
leaf_weight=1.7923827059566975 2.5386535823345184 1.6878439784049988
leaf_count=36 9 11
internal_value=0 -0.0953415
internal_weight=0 3.48023
internal_count=56 47
is_linear=0
shrinkage=0.1


Tree=71
num_leaves=3
num_cat=0
split_feature=0 5
split_gain=0.888362 1.43986e-05
threshold=22.545298798117638 18.500000000000004
decision_type=2 2
left_child=-1 -2
right_child=1 -3
leaf_value=0.092283912428962056 -0.084184637941087603 -0.085183226298089665
leaf_weight=0.55585726350545883 0.27536878595128655 0.30358079820871353
leaf_count=15 28 13
internal_value=0 -0.0847083
internal_weight=0 0.57895
internal_count=56 41
is_linear=0
shrinkage=0.1


Tree=72
num_leaves=2
num_cat=0
split_feature=2
split_gain=2.27222
threshold=60886.324891688557
decision_type=2
left_child=-1
right_child=-2
leaf_value=-0.04333351896322965 0.038525479778550212
leaf_weight=5.9958951771259308 7.8049431294202805
leaf_count=27 29
internal_value=0
internal_weight=0
internal_count=56
is_linear=0
shrinkage=0.1


Tree=73
num_leaves=2
num_cat=0
split_feature=1
split_gain=2.46746
threshold=33.163864797429078
decision_type=2
left_child=-1
right_child=-2
leaf_value=-0.088221578658477462 0.047207709711093511
leaf_weight=2.1652813535183668 3.5526001006364822
leaf_count=39 17
internal_value=0
internal_weight=0
internal_count=56
is_linear=0
shrinkage=0.1


Tree=74
num_leaves=2
num_cat=0
split_feature=2
split_gain=4.97686
threshold=60886.324891688557
decision_type=2
left_child=-1
right_child=-2
leaf_value=0.053397780669202158 -0.089386142236186045
leaf_weight=6.1051035821437836 4.0676358453929424
leaf_count=27 29
internal_value=0
internal_weight=0
internal_count=56
is_linear=0
shrinkage=0.1


Tree=75
num_leaves=2
num_cat=0
split_feature=2
split_gain=2.30501
threshold=41416.555539775167
decision_type=2
left_child=-1
right_child=-2
leaf_value=0.081524670156318077 -0.088199886975421707
leaf_weight=1.6990529149770739 1.5124702090397475
leaf_count=21 35
internal_value=0
internal_weight=0
internal_count=56
is_linear=0
shrinkage=0.1


Tree=76
num_leaves=3
num_cat=0
split_feature=5 5
split_gain=6.68148 0.0176626
threshold=22.500000000000004 17.500000000000004
decision_type=2 2
left_child=1 -1
right_child=-2 -3
leaf_value=-0.086949943502965116 0.12175851222959233 -0.10178741705754711
leaf_weight=1.6380862221121788 2.5862856805324554 1.5724434927105904
leaf_count=36 9 11
internal_value=0 -0.094217
internal_weight=0 3.21053
internal_count=56 47
is_linear=0
shrinkage=0.1


Tree=77
num_leaves=2
num_cat=0
split_feature=5
split_gain=0.838444
threshold=18.500000000000004
decision_type=2
left_child=-1
right_child=-2
leaf_value=-0.084873874494790835 0.087608661362215068
leaf_weight=0.55810333043336868 0.56931939069181681
leaf_count=39 17
internal_value=0
internal_weight=0
internal_count=56
is_linear=0
shrinkage=0.1


Tree=78
num_leaves=2
num_cat=0
split_feature=1
split_gain=1.93479
threshold=20.564680911492911
decision_type=2
left_child=-1
right_child=-2
leaf_value=0.033511825366437563 -0.043619928927493508
leaf_weight=8.0756656080484372 5.4447681754827508
leaf_count=30 26
internal_value=0
internal_weight=0
internal_count=56
is_linear=0
shrinkage=0.1


Tree=79
num_leaves=2
num_cat=0
split_feature=4
split_gain=2.21057
threshold=4.5000000000000009
decision_type=2
left_child=-1
right_child=-2
leaf_value=-0.065659695867176168 0.060144957551942539
leaf_weight=2.834306538105011 2.7537430077791214
leaf_count=33 23
internal_value=0
internal_weight=0
internal_count=56
is_linear=0
shrinkage=0.1


Tree=80
num_leaves=2
num_cat=0
split_feature=5
split_gain=4.46482
threshold=9.0000000000000018
decision_type=2
left_child=-1
right_child=-2
leaf_value=0.045084787366697174 -0.09566565257428436
leaf_weight=6.4830596894025803 3.4547328017652035
leaf_count=24 32
internal_value=0
internal_weight=0
internal_count=56
is_linear=0
shrinkage=0.1


Tree=81
num_leaves=2
num_cat=0
split_feature=1
split_gain=2.23723
threshold=31.464383183544751
decision_type=2
left_child=-1
right_child=-2
leaf_value=-0.088047934964441965 0.080496451921927184
leaf_weight=1.4670500950887801 1.7003644108772276
leaf_count=36 20
internal_value=0
internal_weight=0
internal_count=56
is_linear=0
shrinkage=0.1


Tree=82
num_leaves=3
num_cat=0
split_feature=5 5
split_gain=5.77375 0.0126888
threshold=22.500000000000004 17.500000000000004
decision_type=2 2
left_child=1 -1
right_child=-2 -3
leaf_value=-0.086632663762681056 0.11082557567925491 -0.099736765259345883
leaf_weight=1.5005874987691643 2.618457704782486 1.455827362835407
leaf_count=36 9 11
internal_value=0 -0.0930855
internal_weight=0 2.95641
internal_count=56 47
is_linear=0
shrinkage=0.1


Tree=83
num_leaves=2
num_cat=0
split_feature=4
split_gain=0.801575
threshold=4.5000000000000009
decision_type=2
left_child=-1
right_child=-2
leaf_value=-0.085449524135094268 0.083954724955754942
leaf_weight=0.5376483928412199 0.5813190727494657
leaf_count=33 23
internal_value=0
internal_weight=0
internal_count=56
is_linear=0
shrinkage=0.1


Tree=84
num_leaves=2
num_cat=0
split_feature=2
split_gain=1.64503
threshold=60886.324891688557
decision_type=2
left_child=-1
right_child=-2
leaf_value=-0.038174855222256249 0.033145238284820688
leaf_weight=5.6613613069057465 7.5431515723466873
leaf_count=27 29
internal_value=0
internal_weight=0
internal_count=56
is_linear=0
shrinkage=0.1


Tree=85
num_leaves=2
num_cat=0
split_feature=1
split_gain=2.09235
threshold=33.163864797429078
decision_type=2
left_child=-1
right_child=-2
leaf_value=-0.087842189787631572 0.041368153998891946
leaf_weight=1.9311643801629541 3.5701407119631767
leaf_count=39 17
internal_value=0
internal_weight=0
internal_count=56
is_linear=0
shrinkage=0.1


Tree=86
num_leaves=2
num_cat=0
split_feature=2
split_gain=4.20885
threshold=60886.324891688557
decision_type=2
left_child=-1
right_child=-2
leaf_value=0.048930337263086154 -0.086968142717081059
leaf_weight=5.886145606637001 3.7187341265380383
leaf_count=27 29
internal_value=0
internal_weight=0
internal_count=56
is_linear=0
shrinkage=0.1


Tree=87
num_leaves=2
num_cat=0
split_feature=5
split_gain=2.26926
threshold=17.500000000000004
decision_type=2
left_child=-1
right_child=-2
leaf_value=-0.08764017898995434 0.082510388092116138
leaf_weight=1.4842027369886639 1.6610239166766403
leaf_count=36 20
internal_value=0
internal_weight=0
internal_count=56
is_linear=0
shrinkage=0.1


Tree=88
num_leaves=3
num_cat=0
split_feature=5 5
split_gain=4.98731 0.0116707
threshold=22.500000000000004 18.500000000000004
decision_type=2 2
left_child=1 -1
right_child=-2 -3
leaf_value=-0.086625578485703153 0.10085310184117247 -0.099865632081998224
leaf_weight=1.5653633289039137 2.6274720132350922 1.1584593057632444
leaf_count=39 9 8
internal_value=0 -0.0922567
internal_weight=0 2.72382
internal_count=56 47
is_linear=0
shrinkage=0.1


Tree=89
num_leaves=2
num_cat=0
split_feature=1
split_gain=0.722053
threshold=20.564680911492911
decision_type=2
left_child=-1
right_child=-2
leaf_value=-0.085411461242732453 0.076156583718398174
leaf_weight=0.50841602170839906 0.60665360325947404
leaf_count=30 26
internal_value=0
internal_weight=0
internal_count=56
is_linear=0
shrinkage=0.1


Tree=90
num_leaves=2
num_cat=0
split_feature=1
split_gain=1.51298
threshold=20.564680911492911
decision_type=2
left_child=-1
right_child=-2
leaf_value=0.030119086283879895 -0.039698170047113616
leaf_weight=7.7369508445262909 5.1833635345101357
leaf_count=30 26
internal_value=0
internal_weight=0
internal_count=56
is_linear=0
shrinkage=0.1


Tree=91
num_leaves=3
num_cat=0
split_feature=4 1
split_gain=2.09031 0.986978
threshold=5.5000000000000009 58.228091436103433
decision_type=2 2
left_child=1 -1
right_child=-2 -3
leaf_value=-0.096613385114974443 0.082677225907753879 0.0097982571577509992
leaf_weight=1.9290703907608988 1.8537356052547691 1.5900790020823476
leaf_count=34 13 9
internal_value=0 -0.0485328
internal_weight=0 3.51915
internal_count=56 43
is_linear=0
shrinkage=0.1


Tree=92
num_leaves=2
num_cat=0
split_feature=5
split_gain=3.81479
threshold=9.0000000000000018
decision_type=2
left_child=-1
right_child=-2
leaf_value=0.040679599058167419 -0.095009087123250624
leaf_weight=6.2662578821182251 3.0955135487020016
leaf_count=24 32
internal_value=0
internal_weight=0
internal_count=56
is_linear=0
shrinkage=0.1


Tree=93
num_leaves=2
num_cat=0
split_feature=1
split_gain=1.9764
threshold=31.464383183544751
decision_type=2
left_child=-1
right_child=-2
leaf_value=-0.088001340307689149 0.073175876347412266
leaf_weight=1.3466945840045812 1.7486855909228323
leaf_count=36 20
internal_value=0
internal_weight=0
internal_count=56
is_linear=0
shrinkage=0.1


Tree=94
num_leaves=3
num_cat=0
split_feature=5 5
split_gain=4.35942 0.00827401
threshold=22.500000000000004 18.500000000000004
decision_type=2 2
left_child=1 -1
right_child=-2 -3
leaf_value=-0.086330024090950808 0.093116434606052262 -0.09796065636166712
leaf_weight=1.4333095625042918 2.6306907534599304 1.0669945329427717
leaf_count=39 9 8
internal_value=0 -0.0912933
internal_weight=0 2.5003
internal_count=56 47
is_linear=0
shrinkage=0.1


Tree=95
num_leaves=2
num_cat=0
split_feature=5
split_gain=0.746752
threshold=18.500000000000004
decision_type=2
left_child=-1
right_child=-2
leaf_value=-0.084883899967291732 0.079889770749278374
leaf_weight=0.51567799737676978 0.58941434789448977
leaf_count=39 17
internal_value=0
internal_weight=0
internal_count=56
is_linear=0
shrinkage=0.1


Tree=96
num_leaves=2
num_cat=0
split_feature=2
split_gain=1.34421
threshold=76507.98620565336
decision_type=2
left_child=-1
right_child=-2
leaf_value=-0.023830862720102861 0.043149352373014149
leaf_weight=7.7003139480948448 4.9046637713909149
leaf_count=36 20
internal_value=0
internal_weight=0
internal_count=56
is_linear=0
shrinkage=0.1


Tree=97
num_leaves=2
num_cat=0
split_feature=2
split_gain=1.81551
threshold=72959.603618369219
decision_type=2
left_child=-1
right_child=-2
leaf_value=-0.064056152778517006 0.053500876524777065
leaf_weight=2.5627960804849863 2.6954157222062349
leaf_count=33 23
internal_value=0
internal_weight=0
internal_count=56
is_linear=0
shrinkage=0.1


Tree=98
num_leaves=2
num_cat=0
split_feature=2
split_gain=3.55476
threshold=60886.324891688557
decision_type=2
left_child=-1
right_child=-2
leaf_value=0.044868731410659127 -0.084426568575695429
leaf_weight=5.6503876149654388 3.4094777069985867
leaf_count=27 29
internal_value=0
internal_weight=0
internal_count=56
is_linear=0
shrinkage=0.1


Tree=99
num_leaves=2
num_cat=0
split_feature=5
split_gain=1.99445
threshold=17.500000000000004
decision_type=2
left_child=-1
right_child=-2
leaf_value=-0.08745523656965698 0.074704458369373353
leaf_weight=1.3666730392724278 1.7043168954551218
leaf_count=36 20
internal_value=0
internal_weight=0
internal_count=56
is_linear=0
shrinkage=0.1


Tree=100
num_leaves=3
num_cat=0
split_feature=5 5
split_gain=3.78456 0.00604223
threshold=22.500000000000004 18.500000000000004
decision_type=2 2
left_child=1 -1
right_child=-2 -3
leaf_value=-0.086087739505498223 0.085456570796255349 -0.096449086038940535
leaf_weight=1.3088867645710709 2.6110322177410126 0.9873821660876273
leaf_count=39 9 8
internal_value=0 -0.0905431
internal_weight=0 2.29627
internal_count=56 47
is_linear=0
shrinkage=0.1


Tree=101
num_leaves=3
num_cat=0
split_feature=4 0
split_gain=1.57221 6.52896e-05
threshold=5.5000000000000009 22.545298798117638
decision_type=2 2
left_child=1 -1
right_child=-2 -3
leaf_value=-0.086699560747350746 0.16439353141388199 -0.084772647879709118
leaf_weight=0.31947998702526093 0.38925033481791615 0.39110336801968515
leaf_count=10 13 33
internal_value=0 -0.085639
internal_weight=0 0.710583
internal_count=56 43
is_linear=0
shrinkage=0.1


Tree=102
num_leaves=2
num_cat=0
split_feature=4
split_gain=1.20257
threshold=4.5000000000000009
decision_type=2
left_child=-1
right_child=-2
leaf_value=0.030511653663510337 -0.03208583061014713
leaf_weight=6.8242316916584969 5.5771908536553383
leaf_count=33 23
internal_value=0
internal_weight=0
internal_count=56
is_linear=0
shrinkage=0.1


Tree=103
num_leaves=3
num_cat=0
split_feature=4 0
split_gain=1.69738 1.00968
threshold=5.5000000000000009 32.060320349630963
decision_type=2 2
left_child=1 -1
right_child=-2 -3
leaf_value=0.014386034082280003 0.072749223849804576 -0.096955259335437943
leaf_weight=1.492444269359112 1.880939347669482 1.7928696181625126
leaf_count=14 13 29
internal_value=0 -0.0463754
internal_weight=0 3.28531
internal_count=56 43
is_linear=0
shrinkage=0.1


Tree=104
num_leaves=2
num_cat=0
split_feature=2
split_gain=2.91829
threshold=60886.324891688557
decision_type=2
left_child=-1
right_child=-2
leaf_value=0.038823015639125408 -0.080709082106819055
leaf_weight=5.5953559279441833 3.2166850995272398
leaf_count=27 29
internal_value=0
internal_weight=0
internal_count=56
is_linear=0
shrinkage=0.1


Tree=105
num_leaves=2
num_cat=0
split_feature=2
split_gain=1.91807
threshold=41416.555539775167
decision_type=2
left_child=-1
right_child=-2
leaf_value=0.071896400932873084 -0.089011423121654068
leaf_weight=1.7266245298087599 1.2975181145593522
leaf_count=21 35
internal_value=0
internal_weight=0
internal_count=56
is_linear=0
shrinkage=0.1


Tree=106
num_leaves=3
num_cat=0
split_feature=5 5
split_gain=3.33398 0.00439168
threshold=22.500000000000004 18.500000000000004
decision_type=2 2
left_child=1 -1
right_child=-2 -3
leaf_value=-0.085846381329965929 0.07945795276859477 -0.09506785742574568
leaf_weight=1.199320210143924 2.599389374256134 0.9070448800921439
leaf_count=39 9 8
internal_value=0 -0.0898173
internal_weight=0 2.10637
internal_count=56 47
is_linear=0
shrinkage=0.1


Tree=107
num_leaves=3
num_cat=0
split_feature=4 0
split_gain=1.21469 4.92648e-05
threshold=5.5000000000000009 22.545298798117638
decision_type=2 2
left_child=1 -1
right_child=-2 -3
leaf_value=-0.086398949017091872 0.12893257100373781 -0.084642656714432482
leaf_weight=0.29101973213255405 0.44787664758041501 0.35398290981538594
leaf_count=10 13 33
internal_value=0 -0.0854351
internal_weight=0 0.645003
internal_count=56 43
is_linear=0
shrinkage=0.1


Tree=108
num_leaves=2
num_cat=0
split_feature=1
split_gain=1.15555
threshold=20.564680911492911
decision_type=2
left_child=-1
right_child=-2
leaf_value=0.027469224618604446 -0.035274971035831972
leaf_weight=7.2478706911206245 4.9329970926046371
leaf_count=30 26
internal_value=0
internal_weight=0
internal_count=56
is_linear=0
shrinkage=0.1


Tree=109
num_leaves=2
num_cat=0
split_feature=2
split_gain=1.47545
threshold=72959.603618369219
decision_type=2
left_child=-1
right_child=-2
leaf_value=-0.060853044869083231 0.04737496719774878
leaf_weight=2.3703956436365843 2.6881150268018246
leaf_count=33 23
internal_value=0
internal_weight=0
internal_count=56
is_linear=0
shrinkage=0.1


Tree=110
num_leaves=2
num_cat=0
split_feature=2
split_gain=2.56297
threshold=60886.324891688557
decision_type=2
left_child=-1
right_child=-2
leaf_value=0.036233692781491994 -0.077653885977563397
leaf_weight=5.555886372923851 3.0667345821857452
leaf_count=27 29
internal_value=0
internal_weight=0
internal_count=56
is_linear=0
shrinkage=0.1


Tree=111
num_leaves=2
num_cat=0
split_feature=1
split_gain=1.71648
threshold=31.464383183544751
decision_type=2
left_child=-1
right_child=-2
leaf_value=-0.088163462456911146 0.066315022575192048
leaf_weight=1.2131627416238191 1.7668798416852949
leaf_count=36 20
internal_value=0
internal_weight=0
internal_count=56
is_linear=0
shrinkage=0.1


Tree=112
num_leaves=3
num_cat=0
split_feature=5 5
split_gain=2.9138 0.00321973
threshold=22.500000000000004 18.500000000000004
decision_type=2 2
left_child=1 -1
right_child=-2 -3
leaf_value=-0.085635826493444089 0.073209248052873085 -0.093872223196307836
leaf_weight=1.0969848278909919 2.5770154148340225 0.83656556159257878
leaf_count=39 9 8
internal_value=0 -0.0891994
internal_weight=0 1.93355
internal_count=56 47
is_linear=0
shrinkage=0.1


Tree=113
num_leaves=3
num_cat=0
split_feature=4 0
split_gain=0.966561 3.51922e-05
threshold=5.5000000000000009 22.545298798117638
decision_type=2 2
left_child=1 -1
right_child=-2 -3
leaf_value=-0.086092761784624702 0.10424423495564372 -0.08453249376181611
leaf_weight=0.26239277794957161 0.49926908360794187 0.3219090283382684
leaf_count=10 13 33
internal_value=0 -0.0852332
internal_weight=0 0.584302
internal_count=56 43
is_linear=0
shrinkage=0.1


Tree=114
num_leaves=2
num_cat=0
split_feature=2
split_gain=0.945483
threshold=76507.98620565336
decision_type=2
left_child=-1
right_child=-2
leaf_value=-0.020357983872908509 0.03760086225183476
leaf_weight=7.3191469982266426 4.5732236057519913
leaf_count=36 20
internal_value=0
internal_weight=0
internal_count=56
is_linear=0
shrinkage=0.1


Tree=115
num_leaves=2
num_cat=0
split_feature=4
split_gain=1.37992
threshold=4.5000000000000009
decision_type=2
left_child=-1
right_child=-2
leaf_value=-0.060377767443706112 0.045327888264666834
leaf_weight=2.2932229982689023 2.6761792246252298
leaf_count=33 23
internal_value=0
internal_weight=0
internal_count=56
is_linear=0
shrinkage=0.1


Tree=116
num_leaves=2
num_cat=0
split_feature=2
split_gain=2.19627
threshold=60886.324891688557
decision_type=2
left_child=-1
right_child=-2
leaf_value=0.032965704084768725 -0.07450101440396377
leaf_weight=5.5069461539387703 2.9047602564096451
leaf_count=27 29
internal_value=0
internal_weight=0
internal_count=56
is_linear=0
shrinkage=0.1


Tree=117
num_leaves=2
num_cat=0
split_feature=5
split_gain=1.75196
threshold=17.500000000000004
decision_type=2
left_child=-1
right_child=-2
leaf_value=-0.087278586810167536 0.069143425969774117
leaf_weight=1.2339729610830548 1.7058769315481184
leaf_count=36 20
internal_value=0
internal_weight=0
internal_count=56
is_linear=0
shrinkage=0.1


Tree=118
num_leaves=3
num_cat=0
split_feature=5 5
split_gain=2.58094 0.00235933
threshold=22.500000000000004 18.500000000000004
decision_type=2 2
left_child=1 -1
right_child=-2 -3
leaf_value=-0.085444263904518938 0.068515750204575149 -0.092806174233227498
leaf_weight=1.0031768474727867 2.5467617511749268 0.76903546974062909
leaf_count=39 9 8
internal_value=0 -0.0886389
internal_weight=0 1.77221
internal_count=56 47
is_linear=0
shrinkage=0.1


Tree=119
num_leaves=3
num_cat=0
split_feature=4 0
split_gain=0.777724 2.6365e-05
threshold=5.5000000000000009 22.545298798117638
decision_type=2 2
left_child=1 -1
right_child=-2 -3
leaf_value=-0.085842638086004716 0.085015205729187623 -0.08442380829802365
leaf_weight=0.23758590314537287 0.5463055083528161 0.29184989491477609
leaf_count=10 13 33
internal_value=0 -0.0850605
internal_weight=0 0.529436
internal_count=56 43
is_linear=0
shrinkage=0.1


Tree=120
num_leaves=2
num_cat=0
split_feature=1
split_gain=0.946949
threshold=20.564680911492911
decision_type=2
left_child=-1
right_child=-2
leaf_value=0.025402648659198682 -0.032542134745376795
leaf_weight=6.9256698712706566 4.7578323036432266
leaf_count=30 26
internal_value=0
internal_weight=0
internal_count=56
is_linear=0
shrinkage=0.1


Tree=121
num_leaves=3
num_cat=0
split_feature=1 4
split_gain=1.2165 0.857134
threshold=58.228091436103433 5.5000000000000009
decision_type=2 2
left_child=1 -1
right_child=-2 -3
leaf_value=-0.095195875377215688 0.056733342816431567 0.014482102401290487
leaf_weight=1.5437125377357008 2.0208989605307579 1.323382696136832
leaf_count=34 11 11
internal_value=0 -0.0445711
internal_weight=0 2.8671
internal_count=56 45
is_linear=0
shrinkage=0.1


Tree=122
num_leaves=2
num_cat=0
split_feature=2
split_gain=0.94831
threshold=41416.555539775167
decision_type=2
left_child=-1
right_child=-2
leaf_value=0.030290346940006731 -0.037780835396144206
leaf_weight=3.9667221903800964 4.2278238702565432
leaf_count=21 35
internal_value=0
internal_weight=0
internal_count=56
is_linear=0
shrinkage=0.1


Tree=123
num_leaves=2
num_cat=0
split_feature=2
split_gain=1.68951
threshold=41416.555539775167
decision_type=2
left_child=-1
right_child=-2
leaf_value=0.066310036900646505 -0.089544979582995121
leaf_weight=1.732501205056906 1.1620602388866244
leaf_count=21 35
internal_value=0
internal_weight=0
internal_count=56
is_linear=0
shrinkage=0.1


Tree=124
num_leaves=3
num_cat=0
split_feature=5 5
split_gain=2.29506 0.00172308
threshold=22.500000000000004 18.500000000000004
decision_type=2 2
left_child=1 -1
right_child=-2 -3
leaf_value=-0.085272387099576519 0.064274595319117153 -0.091845635531440373
leaf_weight=0.92032147385179974 2.5240996032953262 0.70372533798217773
leaf_count=39 9 8
internal_value=0 -0.0881207
internal_weight=0 1.62405
internal_count=56 47
is_linear=0
shrinkage=0.1


Tree=125
num_leaves=2
num_cat=0
split_feature=5
split_gain=0.665266
threshold=18.500000000000004
decision_type=2
left_child=-1
right_child=-2
leaf_value=-0.085463195723944049 0.073691606046733388
leaf_weight=0.48026851005852222 0.579586795065552
leaf_count=39 17
internal_value=0
internal_weight=0
internal_count=56
is_linear=0
shrinkage=0.1


Tree=126
num_leaves=2
num_cat=0
split_feature=1
split_gain=0.790515
threshold=20.564680911492911
decision_type=2
left_child=-1
right_child=-2
leaf_value=0.023300336336267765 -0.030195220281338354
leaf_weight=6.7922030985355377 4.6557936295866966
leaf_count=30 26
internal_value=0
internal_weight=0
internal_count=56
is_linear=0
shrinkage=0.1


Tree=127
num_leaves=2
num_cat=0
split_feature=2
split_gain=1.13674
threshold=72959.603618369219
decision_type=2
left_child=-1
right_child=-2
leaf_value=-0.057799776899174884 0.040020743382172014
leaf_weight=2.1600467385724187 2.6397244334220886
leaf_count=33 23
internal_value=0
internal_weight=0
internal_count=56
is_linear=0
shrinkage=0.1


Tree=128
num_leaves=2
num_cat=0
split_feature=2
split_gain=0.842309
threshold=41416.555539775167
decision_type=2
left_child=-1
right_child=-2
leaf_value=0.029139254337515672 -0.035388220288555539
leaf_weight=3.9414858892560005 4.1559325959533453
leaf_count=21 35
internal_value=0
internal_weight=0
internal_count=56
is_linear=0
shrinkage=0.1


Tree=129
num_leaves=2
num_cat=0
split_feature=5
split_gain=1.48703
threshold=17.500000000000004
decision_type=2
left_child=-1
right_child=-2
leaf_value=-0.086923629650568629 0.061174063067977916
leaf_weight=1.107186508830637 1.7490021381527183
leaf_count=36 20
internal_value=0
internal_weight=0
internal_count=56
is_linear=0
shrinkage=0.1


Tree=130
num_leaves=3
num_cat=0
split_feature=5 5
split_gain=2.0571 0.00122711
threshold=22.500000000000004 18.500000000000004
decision_type=2 2
left_child=1 -1
right_child=-2 -3
leaf_value=-0.085129855020360468 0.06091341493400311 -0.090928817009079982
leaf_weight=0.84654027968645118 2.4965911507606506 0.64137689583003521
leaf_count=39 9 8
internal_value=0 -0.0876295
internal_weight=0 1.48792
internal_count=56 47
is_linear=0
shrinkage=0.1


Tree=131
num_leaves=3
num_cat=0
split_feature=4 5
split_gain=0.646922 1.34744e-05
threshold=5.5000000000000009 20.000000000000004
decision_type=2 2
left_child=1 -1
right_child=-2 -3
leaf_value=-0.084464114356655545 0.072791976819363294 -0.085529537104156866
leaf_weight=0.24736826843582094 0.57310747727751732 0.22821956826373935
leaf_count=31 13 12
internal_value=0 -0.0849754
internal_weight=0 0.475588
internal_count=56 43
is_linear=0
shrinkage=0.1


Tree=132
num_leaves=2
num_cat=0
split_feature=2
split_gain=0.708838
threshold=76507.98620565336
decision_type=2
left_child=-1
right_child=-2
leaf_value=-0.01780916293000703 0.03386431026354466
leaf_weight=6.9834785535931587 4.2826848477125168
leaf_count=36 20
internal_value=0
internal_weight=0
internal_count=56
is_linear=0
shrinkage=0.1


Tree=133
num_leaves=2
num_cat=0
split_feature=4
split_gain=1.12265
threshold=4.5000000000000009
decision_type=2
left_child=-1
right_child=-2
leaf_value=-0.058882067824768861 0.039164657764750574
leaf_weight=2.1155440676957369 2.6068608369678259
leaf_count=33 23
internal_value=0
internal_weight=0
internal_count=56
is_linear=0
shrinkage=0.1


Tree=134
num_leaves=2
num_cat=0
split_feature=2
split_gain=0.712644
threshold=41416.555539775167
decision_type=2
left_child=-1
right_child=-2
leaf_value=0.026413366762474369 -0.033437273993747046
leaf_weight=3.8819406405091286 4.0808699820190668
leaf_count=21 35
internal_value=0
internal_weight=0
internal_count=56
is_linear=0
shrinkage=0.1


Tree=135
num_leaves=2
num_cat=0
split_feature=1
split_gain=1.49631
threshold=31.464383183544751
decision_type=2
left_child=-1
right_child=-2
leaf_value=-0.08852406221624487 0.061453514200054155
leaf_weight=1.0813325047492983 1.728720925748348
leaf_count=36 20
internal_value=0
internal_weight=0
internal_count=56
is_linear=0
shrinkage=0.1


Tree=136
num_leaves=3
num_cat=0
split_feature=5 5
split_gain=1.85067 0.000890759
threshold=22.500000000000004 18.500000000000004
decision_type=2 2
left_child=1 -1
right_child=-2 -3
leaf_value=-0.084982785487527135 0.057970753900875062 -0.090149184525944961
leaf_weight=0.7774069504812362 2.471422016620636 0.58473272249102592
leaf_count=39 9 8
internal_value=0 -0.0872006
internal_weight=0 1.36214
internal_count=56 47
is_linear=0
shrinkage=0.1


Tree=137
num_leaves=2
num_cat=0
split_feature=5
split_gain=0.587587
threshold=18.500000000000004
decision_type=2
left_child=-1
right_child=-2
leaf_value=-0.085568963931460032 0.066327580759528826
leaf_weight=0.44840791844762862 0.58943093381822109
leaf_count=39 17
internal_value=0
internal_weight=0
internal_count=56
is_linear=0
shrinkage=0.1


Tree=138
num_leaves=2
num_cat=0
split_feature=1
split_gain=0.661129
threshold=20.564680911492911
decision_type=2
left_child=-1
right_child=-2
leaf_value=0.021812077218894652 -0.027831637940156091
leaf_weight=6.5722062587738037 4.532774843275547
leaf_count=30 26
internal_value=0
internal_weight=0
internal_count=56
is_linear=0
shrinkage=0.1


Tree=139
num_leaves=2
num_cat=0
split_feature=5
split_gain=1.05814
threshold=13.500000000000002
decision_type=2
left_child=-1
right_child=-2
leaf_value=-0.059712344126450038 0.036844554950763567
leaf_weight=1.9627880537882445 2.6909250291064382
leaf_count=30 26
internal_value=0
internal_weight=0
internal_count=56
is_linear=0
shrinkage=0.1


Tree=140
num_leaves=3
num_cat=0
split_feature=5 5
split_gain=0.685386 7.25696
threshold=6.5000000000000009 9.0000000000000018
decision_type=2 2
left_child=-1 -2
right_child=1 -3
leaf_value=-0.04160410180980148 0.14850697678932503 -0.096932421891655268
leaf_weight=3.0384898334741592 2.2831812053918839 2.5502311233431101
leaf_count=14 10 32
internal_value=0 0.0190069
internal_weight=0 4.83341
internal_count=56 42
is_linear=0
shrinkage=0.1


Tree=141
num_leaves=2
num_cat=0
split_feature=2
split_gain=1.50837
threshold=41416.555539775167
decision_type=2
left_child=-1
right_child=-2
leaf_value=0.061670659184455502 -0.090374188259413402
leaf_weight=1.7185066249221566 1.0518313348293302
leaf_count=21 35
internal_value=0
internal_weight=0
internal_count=56
is_linear=0
shrinkage=0.1


Tree=142
num_leaves=2
num_cat=0
split_feature=1
split_gain=0.700973
threshold=-15.279226429801845
decision_type=2
left_child=-1
right_child=-2
leaf_value=0.053258902963781107 -0.034150851777754725
leaf_weight=1.7131857508793475 1.9752206290140746
leaf_count=15 41
internal_value=0
internal_weight=0
internal_count=56
is_linear=0
shrinkage=0.1


Tree=143
num_leaves=3
num_cat=0
split_feature=4 0
split_gain=0.540632 2.76495e-05
threshold=5.5000000000000009 30.036688731471514
decision_type=2 2
left_child=1 -1
right_child=-2 -3
leaf_value=-0.085633324124672769 0.062416365259551423 -0.084017248312472592
leaf_weight=0.23807468311861157 0.5943594453856349 0.19064423837698996
leaf_count=12 13 31
internal_value=0 -0.0849147
internal_weight=0 0.428719
internal_count=56 43
is_linear=0
shrinkage=0.1


Tree=144
num_leaves=2
num_cat=0
split_feature=4
split_gain=0.583921
threshold=4.5000000000000009
decision_type=2
left_child=-1
right_child=-2
leaf_value=0.023289389589704643 -0.02317272021566489
leaf_weight=5.8356513381004333 5.041975349187851
leaf_count=33 23
internal_value=0
internal_weight=0
internal_count=56
is_linear=0
shrinkage=0.1


Tree=145
num_leaves=3
num_cat=0
split_feature=1 4
split_gain=0.995679 0.707072
threshold=58.228091436103433 5.5000000000000009
decision_type=2 2
left_child=1 -1
right_child=-2 -3
leaf_value=-0.095407612636757511 0.050375768489104147 0.0080675670090808449
leaf_weight=1.3354789270088079 1.9209209457039831 1.3063479308038948
leaf_count=34 11 11
internal_value=0 -0.0442405
internal_weight=0 2.64183
internal_count=56 45
is_linear=0
shrinkage=0.1


Tree=146
num_leaves=2
num_cat=0
split_feature=2
split_gain=0.618846
threshold=41416.555539775167
decision_type=2
left_child=-1
right_child=-2
leaf_value=0.025248176207776515 -0.032129693031413158
leaf_weight=3.659693568944931 3.8647833922877908
leaf_count=21 35
internal_value=0
internal_weight=0
internal_count=56
is_linear=0
shrinkage=0.1


Tree=147
num_leaves=2
num_cat=0
split_feature=1
split_gain=1.29035
threshold=31.464383183544751
decision_type=2
left_child=-1
right_child=-2
leaf_value=-0.088484817949839645 0.054695082968374824
leaf_weight=0.98120855074375901 1.7556134723126886
leaf_count=36 20
internal_value=0
internal_weight=0
internal_count=56
is_linear=0
shrinkage=0.1


Tree=148
num_leaves=3
num_cat=0
split_feature=1 0
split_gain=0.608127 0.117188
threshold=-15.279226429801845 67.540112928910418
decision_type=2 2
left_child=-1 -2
right_child=1 -3
leaf_value=0.049910775777775189 -0.0096626965707412426 -0.059030197177375343
leaf_weight=1.7114517977461221 1.0706213116645811 0.87286297697573889
leaf_count=15 30 11
internal_value=0 -0.0318348
internal_weight=0 1.94348
internal_count=56 41
is_linear=0
shrinkage=0.1


Tree=149
num_leaves=2
num_cat=0
split_feature=5
split_gain=0.515614
threshold=18.500000000000004
decision_type=2
left_child=-1
right_child=-2
leaf_value=-0.085618864358041447 0.059512123975639042
leaf_weight=0.41467005235608667 0.59755686111748219
leaf_count=39 17
internal_value=0
internal_weight=0
internal_count=56
is_linear=0
shrinkage=0.1


Tree=150
num_leaves=2
num_cat=0
split_feature=2
split_gain=0.54013
threshold=76507.98620565336
decision_type=2
left_child=-1
right_child=-2
leaf_value=-0.016033525387555089 0.030125583958962834
leaf_weight=6.6746669784188271 4.0874330177903175
leaf_count=36 20
internal_value=0
internal_weight=0
internal_count=56
is_linear=0
shrinkage=0.1


Tree=151
num_leaves=2
num_cat=0
split_feature=2
split_gain=0.887712
threshold=72959.603618369219
decision_type=2
left_child=-1
right_child=-2
leaf_value=-0.055578420621015617 0.034414449943262114
leaf_weight=1.9256044374778865 2.5445541385561228
leaf_count=33 23
internal_value=0
internal_weight=0
internal_count=56
is_linear=0
shrinkage=0.1


Tree=152
num_leaves=3
num_cat=0
split_feature=5 5
split_gain=0.590066 6.48221
threshold=6.5000000000000009 9.0000000000000018
decision_type=2 2
left_child=-1 -2
right_child=1 -3
leaf_value=-0.037894754446060955 0.14439349549903682 -0.095774516567056836
leaf_weight=2.9849086701869965 2.1600355356931686 2.3426055544987321
leaf_count=14 10 32
internal_value=0 0.0194404
internal_weight=0 4.50264
internal_count=56 42
is_linear=0
shrinkage=0.1


Tree=153
num_leaves=2
num_cat=0
split_feature=5
split_gain=1.29405
threshold=17.500000000000004
decision_type=2
left_child=-1
right_child=-2
leaf_value=-0.086912062486548869 0.056121715674035649
leaf_weight=1.007148059550673 1.7004516543820498
leaf_count=36 20
internal_value=0
internal_weight=0
internal_count=56
is_linear=0
shrinkage=0.1


Tree=154
num_leaves=3
num_cat=0
split_feature=1 0
split_gain=0.500821 0.0899515
threshold=-15.279226429801845 67.540112928910418
decision_type=2 2
left_child=-1 -2
right_child=1 -3
leaf_value=0.045324686092320009 -0.0095365484977344671 -0.053044832259384417
leaf_weight=1.7066243682056668 1.0552034238353369 0.86449031718075264
leaf_count=15 30 11
internal_value=0 -0.0291295
internal_weight=0 1.91969
internal_count=56 41
is_linear=0
shrinkage=0.1


Tree=155
num_leaves=3
num_cat=0
split_feature=4 0
split_gain=0.453666 2.19757e-05
threshold=5.5000000000000009 30.036688731471514
decision_type=2 2
left_child=1 -1
right_child=-2 -3
leaf_value=-0.085516494185030795 0.053270277753632113 -0.084005049439850696
leaf_weight=0.21500165387988091 0.61184009863063693 0.17408635746687651
leaf_count=12 13 31
internal_value=0 -0.0848402
internal_weight=0 0.389088
internal_count=56 43
is_linear=0
shrinkage=0.1


Tree=156
num_leaves=2
num_cat=0
split_feature=1
split_gain=0.54222
threshold=20.564680911492911
decision_type=2
left_child=-1
right_child=-2
leaf_value=0.020966991349345002 -0.024988032535109308
leaf_weight=6.2397195175290108 4.3625946640968323
leaf_count=30 26
internal_value=0
internal_weight=0
internal_count=56
is_linear=0
shrinkage=0.1


Tree=157
num_leaves=2
num_cat=0
split_feature=4
split_gain=0.865307
threshold=4.5000000000000009
decision_type=2
left_child=-1
right_child=-2
leaf_value=-0.05461822094013824 0.035226416142191734
leaf_weight=1.8796106772497294 2.4948223400861025
leaf_count=33 23
internal_value=0
internal_weight=0
internal_count=56
is_linear=0
shrinkage=0.1


Tree=158
num_leaves=2
num_cat=0
split_feature=2
split_gain=0.510446
threshold=41416.555539775167
decision_type=2
left_child=-1
right_child=-2
leaf_value=0.023171825969032622 -0.030340730080081008
leaf_weight=3.4677832722663879 3.6679841112345457
leaf_count=21 35
internal_value=0
internal_weight=0
internal_count=56
is_linear=0
shrinkage=0.1


Tree=159
num_leaves=2
num_cat=0
split_feature=1
split_gain=1.15078
threshold=31.464383183544751
decision_type=2
left_child=-1
right_child=-2
leaf_value=-0.088597755241711026 0.049592386525085352
leaf_weight=0.92124553816393051 1.742316013202071
leaf_count=36 20
internal_value=0
internal_weight=0
internal_count=56
is_linear=0
shrinkage=0.1


Tree=160
num_leaves=2
num_cat=0
split_feature=1
split_gain=0.419895
threshold=-15.279226429801845
decision_type=2
left_child=-1
right_child=-2
leaf_value=0.041592081465373909 -0.02682902690507985
leaf_weight=1.7025088872760537 1.8955920031294224
leaf_count=15 41
internal_value=0
internal_weight=0
internal_count=56
is_linear=0
shrinkage=0.1


Tree=161
num_leaves=2
num_cat=0
split_feature=5
split_gain=0.451682
threshold=18.500000000000004
decision_type=2
left_child=-1
right_child=-2
leaf_value=-0.085666189982940996 0.053049854620645466
leaf_weight=0.38392325898166746 0.6040772870182991
leaf_count=39 17
internal_value=0
internal_weight=0
internal_count=56
is_linear=0
shrinkage=0.1


Tree=162
num_leaves=2
num_cat=0
split_feature=2
split_gain=0.474152
threshold=80981.994554889665
decision_type=2
left_child=-1
right_child=-2
leaf_value=-0.013192343687743569 0.032021258622752201
leaf_weight=6.992070309817791 3.4707403257489204
leaf_count=39 17
internal_value=0
internal_weight=0
internal_count=56
is_linear=0
shrinkage=0.1


Tree=163
num_leaves=3
num_cat=0
split_feature=1 2
split_gain=0.88181 0.721872
threshold=58.228091436103433 87250.32164892595
decision_type=2 2
left_child=1 -1
right_child=-2 -3
leaf_value=-0.09165221414970913 0.048693209860558591 0.016937687343267591
leaf_weight=1.3593754796311261 1.8385449796915052 1.1137521937489507
leaf_count=33 11 12
internal_value=0 -0.0427497
internal_weight=0 2.47313
internal_count=56 45
is_linear=0
shrinkage=0.1


Tree=164
num_leaves=3
num_cat=0
split_feature=5 5
split_gain=0.504073 5.82801
threshold=6.5000000000000009 9.0000000000000018
decision_type=2 2
left_child=-1 -2
right_child=1 -3
leaf_value=-0.035774195427143933 0.14183567560544785 -0.095027210729619879
leaf_weight=2.90826316177845 1.994752913713455 2.1675705267116427
leaf_count=14 10 32
internal_value=0 0.018487
internal_weight=0 4.16232
internal_count=56 42
is_linear=0
shrinkage=0.1


Tree=165
num_leaves=2
num_cat=0
split_feature=5
split_gain=0.852184
threshold=18.500000000000004
decision_type=2
left_child=-1
right_child=-2
leaf_value=-0.045663537188113439 0.070158257125703741
leaf_weight=1.5610832613892855 1.0711527550593016
leaf_count=39 17
internal_value=0
internal_weight=0
internal_count=56
is_linear=0
shrinkage=0.1


Tree=166
num_leaves=2
num_cat=0
split_feature=1
split_gain=0.363869
threshold=-15.279226429801845
decision_type=2
left_child=-1
right_child=-2
leaf_value=0.039464912639932112 -0.02440624570584881
leaf_weight=1.701531205326319 1.874602949246764
leaf_count=15 41
internal_value=0
internal_weight=0
internal_count=56
is_linear=0
shrinkage=0.1


Tree=167
num_leaves=3
num_cat=0
split_feature=0 5
split_gain=0.396959 5.18495e-06
threshold=22.545298798117638 20.000000000000004
decision_type=2 2
left_child=-1 -2
right_child=1 -3
leaf_value=0.047727320525243387 -0.084538056064632314 -0.085301173376576736
leaf_weight=0.6155018478166312 0.17768562969285995 0.17845676187425852
leaf_count=15 30 11
internal_value=0 -0.0849204
internal_weight=0 0.356142
internal_count=56 41
is_linear=0
shrinkage=0.1


Tree=168
num_leaves=2
num_cat=0
split_feature=1
split_gain=0.458328
threshold=20.564680911492911
decision_type=2
left_child=-1
right_child=-2
leaf_value=0.019719481520098763 -0.023146834066305282
leaf_weight=6.0419946499168873 4.2479082942008972
leaf_count=30 26
internal_value=0
internal_weight=0
internal_count=56
is_linear=0
shrinkage=0.1


Tree=169
num_leaves=2
num_cat=0
split_feature=5
split_gain=0.776417
threshold=13.500000000000002
decision_type=2
left_child=-1
right_child=-2
leaf_value=-0.055759500346548779 0.03199776670259484
leaf_weight=1.6850439673289654 2.5097206314094365
leaf_count=30 26
internal_value=0
internal_weight=0
internal_count=56
is_linear=0
shrinkage=0.1


Tree=170
num_leaves=2
num_cat=0
split_feature=5
split_gain=0.458899
threshold=7.5000000000000009
decision_type=2
left_child=-1
right_child=-2
leaf_value=0.018087859522959045 -0.034640929694017081
leaf_weight=3.8957131654024124 2.8638880988582969
leaf_count=19 37
internal_value=0
internal_weight=0
internal_count=56
is_linear=0
shrinkage=0.1


Tree=171
num_leaves=3
num_cat=0
split_feature=5 2
split_gain=1.26635 0.346358
threshold=20.000000000000004 28897.029730708375
decision_type=2 2
left_child=1 -1
right_child=-2 -3
leaf_value=-0.0028143449467470175 0.096654170024823127 -0.09298520032337193
leaf_weight=0.81785843614488862 0.90298672392964352 0.88904359377920628
leaf_count=13 14 29
internal_value=0 -0.04978
internal_weight=0 1.7069
internal_count=56 42
is_linear=0
shrinkage=0.1


Tree=172
num_leaves=3
num_cat=0
split_feature=1 4
split_gain=0.304436 0.165972
threshold=-15.279226429801845 3.5000000000000004
decision_type=2 2
left_child=-1 -2
right_child=1 -3
leaf_value=0.03637386881847552 -0.050184918051996943 0.0098024556487167278
leaf_weight=1.6969089517369869 0.99034522566944339 0.86327566392719746
leaf_count=15 18 23
internal_value=0 -0.0222474
internal_weight=0 1.85362
internal_count=56 41
is_linear=0
shrinkage=0.1


Tree=173
num_leaves=2
num_cat=0
split_feature=5
split_gain=0.396569
threshold=18.500000000000004
decision_type=2
left_child=-1
right_child=-2
leaf_value=-0.085647022087315894 0.047877091491718864
leaf_weight=0.35200838302262127 0.60427060630172491
leaf_count=39 17
internal_value=0
internal_weight=0
internal_count=56
is_linear=0
shrinkage=0.1


Tree=174
num_leaves=2
num_cat=0
split_feature=2
split_gain=0.418605
threshold=76507.98620565336
decision_type=2
left_child=-1
right_child=-2
leaf_value=-0.014045107780095312 0.027553080125824816
leaf_weight=6.250068299472332 3.9466821812093258
leaf_count=36 20
internal_value=0
internal_weight=0
internal_count=56
is_linear=0
shrinkage=0.1


Tree=175
num_leaves=3
num_cat=0
split_feature=4 0
split_gain=0.749108 0.826291
threshold=5.5000000000000009 32.060320349630963
decision_type=2 2
left_child=1 -1
right_child=-2 -3
leaf_value=0.019178698355918258 0.045293999711429826 -0.09888613367646415
leaf_weight=1.1670234333723786 1.7617178354412315 1.2046865783631799
leaf_count=14 13 29
internal_value=0 -0.0407912
internal_weight=0 2.37171
internal_count=56 43
is_linear=0
shrinkage=0.1


Tree=176
num_leaves=3
num_cat=0
split_feature=5 5
split_gain=0.515894 5.13077
threshold=6.5000000000000009 9.0000000000000018
decision_type=2 2
left_child=-1 -2
right_child=1 -3
leaf_value=-0.036162013621566659 0.13895876582070221 -0.093690303119800492
leaf_weight=2.879621222615242 1.8535080775618555 1.9402260081842539
leaf_count=14 10 32
internal_value=0 0.0199753
internal_weight=0 3.79373
internal_count=56 42
is_linear=0
shrinkage=0.1


Tree=177
num_leaves=3
num_cat=0
split_feature=5 4
split_gain=1.03474 0.349709
threshold=20.000000000000004 4.5000000000000009
decision_type=2 2
left_child=1 -1
right_child=-2 -3
leaf_value=-0.092645550578967062 0.083749349080674607 -0.00024718046785008886
leaf_weight=0.84185649454593681 0.94367653969675291 0.79779441421851516
leaf_count=25 14 17
internal_value=0 -0.0476879
internal_weight=0 1.63965
internal_count=56 42
is_linear=0
shrinkage=0.1


Tree=178
num_leaves=3
num_cat=0
split_feature=1 4
split_gain=0.258342 0.131465
threshold=-15.279226429801845 3.5000000000000004
decision_type=2 2
left_child=-1 -2
right_child=1 -3
leaf_value=0.035082878399078379 -0.044231648068722346 0.0093407356040414186
leaf_weight=1.6980407824739816 0.97313927579671122 0.86543619260191917
leaf_count=15 18 23
internal_value=0 -0.0190146
internal_weight=0 1.83858
internal_count=56 41
is_linear=0
shrinkage=0.1


Tree=179
num_leaves=3
num_cat=0
split_feature=4 4
split_gain=0.374828 9.53581e-07
threshold=5.5000000000000009 3.5000000000000004
decision_type=2 2
left_child=1 -1
right_child=-2 -3
leaf_value=-0.084995606576547741 0.046559838169811962 -0.084660803263033144
leaf_weight=0.17844175064237788 0.59748333878815174 0.16257764672627673
leaf_count=22 13 21
internal_value=0 -0.084836
internal_weight=0 0.341019
internal_count=56 43
is_linear=0
shrinkage=0.1


Tree=180
num_leaves=2
num_cat=0
split_feature=5
split_gain=0.421915
threshold=7.5000000000000009
decision_type=2
left_child=-1
right_child=-2
leaf_value=0.030277824439925501 -0.012832068254437799
leaf_weight=3.477717861533165 6.5385947525501251
leaf_count=19 37
internal_value=0
internal_weight=0
internal_count=56
is_linear=0
shrinkage=0.1


Tree=181
num_leaves=3
num_cat=0
split_feature=1 2
split_gain=0.738299 0.6619
threshold=58.228091436103433 87250.32164892595
decision_type=2 2
left_child=1 -1
right_child=-2 -3
leaf_value=-0.091058449150278581 0.045954898123570669 0.016351718445531415
leaf_weight=1.2165787997655573 1.7366359457373617 1.0857461001724003
leaf_count=33 11 12
internal_value=0 -0.0404052
internal_weight=0 2.30232
internal_count=56 45
is_linear=0
shrinkage=0.1


Tree=182
num_leaves=2
num_cat=0
split_feature=2
split_gain=0.472017
threshold=41416.555539775167
decision_type=2
left_child=-1
right_child=-2
leaf_value=0.023876239370025171 -0.030661857974256843
leaf_weight=3.0210809111595154 3.3429185841232538
leaf_count=21 35
internal_value=0
internal_weight=0
internal_count=56
is_linear=0
shrinkage=0.1


Tree=183
num_leaves=3
num_cat=0
split_feature=5 4
split_gain=0.836037 0.333844
threshold=20.000000000000004 4.5000000000000009
decision_type=2 2
left_child=1 -1
right_child=-2 -3
leaf_value=-0.092236522265823268 0.071931915486633635 0.00011618549109600047
leaf_weight=0.77906751958653353 0.9801417440176009 0.78665343555621803
leaf_count=25 14 17
internal_value=0 -0.0458364
internal_weight=0 1.56572
internal_count=56 42
is_linear=0
shrinkage=0.1


Tree=184
num_leaves=3
num_cat=0
split_feature=1 4
split_gain=0.212813 0.108058
threshold=-15.279226429801845 3.5000000000000004
decision_type=2 2
left_child=-1 -2
right_child=1 -3
leaf_value=0.032334726623646712 -0.040087455636721142 0.0087664313967908726
leaf_weight=1.6938513386994603 0.95566162746399619 0.86034506186842918
leaf_count=15 18 23
internal_value=0 -0.0169426
internal_weight=0 1.81601
internal_count=56 41
is_linear=0
shrinkage=0.1


Tree=185
num_leaves=2
num_cat=0
split_feature=5
split_gain=0.361557
threshold=18.500000000000004
decision_type=2
left_child=-1
right_child=-2
leaf_value=-0.085622681256679226 0.045731036842497061
leaf_weight=0.32372145802946761 0.59417452104389668
leaf_count=39 17
internal_value=0
internal_weight=0
internal_count=56
is_linear=0
shrinkage=0.1


Tree=186
num_leaves=2
num_cat=0
split_feature=1
split_gain=0.397664
threshold=20.564680911492911
decision_type=2
left_child=-1
right_child=-2
leaf_value=0.018827592692341421 -0.021760166271175566
leaf_weight=5.8262384012341499 4.1216139420866966
leaf_count=30 26
internal_value=0
internal_weight=0
internal_count=56
is_linear=0
shrinkage=0.1


Tree=187
num_leaves=3
num_cat=0
split_feature=4 0
split_gain=0.677478 0.757142
threshold=5.5000000000000009 32.060320349630963
decision_type=2 2
left_child=1 -1
right_child=-2 -3
leaf_value=0.017046886067821506 0.043752658623263038 -0.099147565310689523
leaf_weight=1.1451469082385308 1.7058640699833629 1.0989961365703491
leaf_count=14 13 29
internal_value=0 -0.0398556
internal_weight=0 2.24414
internal_count=56 43
is_linear=0
shrinkage=0.1


Tree=188
num_leaves=2
num_cat=0
split_feature=5
split_gain=0.41271
threshold=7.5000000000000009
decision_type=2
left_child=-1
right_child=-2
leaf_value=0.017157146511682594 -0.034900879975097977
leaf_weight=3.747544638812542 2.5654018968343735
leaf_count=19 37
internal_value=0
internal_weight=0
internal_count=56
is_linear=0
shrinkage=0.1


Tree=189
num_leaves=2
num_cat=0
split_feature=1
split_gain=1.06184
threshold=31.464383183544751
decision_type=2
left_child=-1
right_child=-2
leaf_value=-0.088383744375554962 0.04737851717187791
leaf_weight=0.89367967890575561 1.6211950527504084
leaf_count=36 20
internal_value=0
internal_weight=0
internal_count=56
is_linear=0
shrinkage=0.1


Tree=190
num_leaves=2
num_cat=0
split_feature=2
split_gain=0.208005
threshold=76507.98620565336
decision_type=2
left_child=-1
right_child=-2
leaf_value=0.024526591607769481 -0.026628004584421463
leaf_weight=2.2750837053172295 1.2217455003410576
leaf_count=36 20
internal_value=0
internal_weight=0
internal_count=56
is_linear=0
shrinkage=0.1


Tree=191
num_leaves=2
num_cat=0
split_feature=1
split_gain=0.334633
threshold=20.564680911492911
decision_type=2
left_child=-1
right_child=-2
leaf_value=-0.085227781970211525 0.042892229474634988
leaf_weight=0.31071208458160982 0.59280954953283072
leaf_count=30 26
internal_value=0
internal_weight=0
internal_count=56
is_linear=0
shrinkage=0.1


Tree=192
num_leaves=2
num_cat=0
split_feature=2
split_gain=0.384274
threshold=60886.324891688557
decision_type=2
left_child=-1
right_child=-2
leaf_value=-0.021378595904188627 0.018647996673055511
leaf_weight=4.1663067899644375 5.6528254076838493
leaf_count=27 29
internal_value=0
internal_weight=0
internal_count=56
is_linear=0
shrinkage=0.1


Tree=193
num_leaves=3
num_cat=0
split_feature=1 2
split_gain=0.642704 0.7724
threshold=58.228091436103433 95825.864763530393
decision_type=2 2
left_child=1 -1
right_child=-2 -3
leaf_value=-0.090516347892598631 0.042493786663045506 0.030058973323689082
leaf_weight=1.2599870932754136 1.6905968077480791 0.91862869076430786
leaf_count=36 11 9
internal_value=0 -0.0396749
internal_weight=0 2.17862
internal_count=56 45
is_linear=0
shrinkage=0.1


Tree=194
num_leaves=3
num_cat=0
split_feature=5 5
split_gain=0.478903 4.58951
threshold=6.5000000000000009 9.0000000000000018
decision_type=2 2
left_child=-1 -2
right_child=1 -3
leaf_value=-0.033944578061467563 0.1382525993970764 -0.092802870402361431
leaf_weight=2.8087198212742805 1.7044024839997294 1.7345561096444724
leaf_count=14 10 32
internal_value=0 0.0217119
internal_weight=0 3.43896
internal_count=56 42
is_linear=0
shrinkage=0.1


Tree=195
num_leaves=3
num_cat=0
split_feature=5 2
split_gain=0.750782 0.343688
threshold=20.000000000000004 28897.029730708375
decision_type=2 2
left_child=1 -1
right_child=-2 -3
leaf_value=0.0038442352846004661 0.067453591422180423 -0.092022375551962451
leaf_weight=0.72909252950921677 0.97456131130456913 0.76776070613414049
leaf_count=13 14 29
internal_value=0 -0.0453273
internal_weight=0 1.49685
internal_count=56 42
is_linear=0
shrinkage=0.1


Tree=196
num_leaves=2
num_cat=0
split_feature=0
split_gain=0.177893
threshold=32.060320349630963
decision_type=2
left_child=-1
right_child=-2
leaf_value=-0.021440781549276464 0.02473000379750346
leaf_weight=1.3894777027890088 2.0892691542394459
leaf_count=21 35
internal_value=0
internal_weight=0
internal_count=56
is_linear=0
shrinkage=0.1


Tree=197
num_leaves=1
num_cat=0
split_feature=
split_gain=
threshold=
decision_type=
left_child=
right_child=
leaf_value=0
leaf_weight=
leaf_count=
internal_value=
internal_weight=
internal_count=
is_linear=0
shrinkage=1


Tree=198
num_leaves=2
num_cat=0
split_feature=5
split_gain=0.328305
threshold=13.500000000000002
decision_type=2
left_child=-1
right_child=-2
leaf_value=0.020037754001239548 -0.016857482709137801
leaf_weight=4.8302254118025303 4.8168968074023724
leaf_count=30 26
internal_value=0
internal_weight=0
internal_count=56
is_linear=0
shrinkage=0.1


Tree=199
num_leaves=2
num_cat=0
split_feature=4
split_gain=0.618697
threshold=4.5000000000000009
decision_type=2
left_child=-1
right_child=-2
leaf_value=-0.050776454560705869 0.031359049197658251
leaf_weight=1.5895725463051351 2.1678066346794367
leaf_count=33 23
internal_value=0
internal_weight=0
internal_count=56
is_linear=0
shrinkage=0.1


Tree=200
num_leaves=2
num_cat=0
split_feature=2
split_gain=0.432125
threshold=41416.555539775167
decision_type=2
left_child=-1
right_child=-2
leaf_value=0.024830076864889368 -0.02906211640834936
leaf_weight=2.8198789432644844 3.1497190780937672
leaf_count=21 35
internal_value=0
internal_weight=0
internal_count=56
is_linear=0
shrinkage=0.1


Tree=201
num_leaves=3
num_cat=0
split_feature=5 4
split_gain=0.644263 0.307907
threshold=20.000000000000004 4.5000000000000009
decision_type=2 2
left_child=1 -1
right_child=-2 -3
leaf_value=-0.091635673267947568 0.060732158489406107 0.0013653154495323751
leaf_weight=0.69697852001991145 0.99507018271833647 0.72766619478352368
leaf_count=25 14 17
internal_value=0 -0.0441335
internal_weight=0 1.42464
internal_count=56 42
is_linear=0
shrinkage=0.1


Tree=202
num_leaves=2
num_cat=0
split_feature=1
split_gain=0.188779
threshold=-15.279226429801845
decision_type=2
left_child=-1
right_child=-2
leaf_value=0.030363840154753477 -0.016331430003414839
leaf_weight=1.6894482523202898 1.7758365939371286
leaf_count=15 41
internal_value=0
internal_weight=0
internal_count=56
is_linear=0
shrinkage=0.1


Tree=203
num_leaves=1
num_cat=0
split_feature=
split_gain=
threshold=
decision_type=
left_child=
right_child=
leaf_value=0
leaf_weight=
leaf_count=
internal_value=
internal_weight=
internal_count=
is_linear=0
shrinkage=1


Tree=204
num_leaves=2
num_cat=0
split_feature=1
split_gain=0.315344
threshold=20.564680911492911
decision_type=2
left_child=-1
right_child=-2
leaf_value=0.016712111798114399 -0.02008365896285319
leaf_weight=5.6077472753822803 3.983673382550478
leaf_count=30 26
internal_value=0
internal_weight=0
internal_count=56
is_linear=0
shrinkage=0.1


Tree=205
num_leaves=2
num_cat=0
split_feature=2
split_gain=0.590715
threshold=72959.603618369219
decision_type=2
left_child=-1
right_child=-2
leaf_value=-0.053383295119491747 0.028336877100102742
leaf_weight=1.4538916596211495 2.2587832761928439
leaf_count=33 23
internal_value=0
internal_weight=0
internal_count=56
is_linear=0
shrinkage=0.1


Tree=206
num_leaves=3
num_cat=0
split_feature=5 5
split_gain=0.393618 4.20312
threshold=6.5000000000000009 9.0000000000000018
decision_type=2 2
left_child=-1 -2
right_child=1 -3
leaf_value=-0.030625424636625476 0.1374679085811161 -0.092378103509790851
leaf_weight=2.7396418750286102 1.5711753219366076 1.6117615574039517
leaf_count=14 10 32
internal_value=0 0.0210795
internal_weight=0 3.18294
internal_count=56 42
is_linear=0
shrinkage=0.1


Tree=207
num_leaves=3
num_cat=0
split_feature=5 2
split_gain=0.530387 0.330927
threshold=20.000000000000004 28897.029730708375
decision_type=2 2
left_child=1 -1
right_child=-2 -3
leaf_value=0.0071993114484642864 0.053314686058958144 -0.090998528014613222
leaf_weight=0.68643602496013068 1.0197460055351255 0.68630558380391449
leaf_count=13 14 29
internal_value=0 -0.0418949
internal_weight=0 1.37274
internal_count=56 42
is_linear=0
shrinkage=0.1


Tree=208
num_leaves=2
num_cat=0
split_feature=2
split_gain=0.177707
threshold=76507.98620565336
decision_type=2
left_child=-1
right_child=-2
leaf_value=0.022711027158230784 -0.024828283765958463
leaf_weight=2.2440503570251171 1.2104699732735751
leaf_count=36 20
internal_value=0
internal_weight=0
internal_count=56
is_linear=0
shrinkage=0.1


Tree=209
num_leaves=1
num_cat=0
split_feature=
split_gain=
threshold=
decision_type=
left_child=
right_child=
leaf_value=0
leaf_weight=
leaf_count=
internal_value=
internal_weight=
internal_count=
is_linear=0
shrinkage=1


Tree=210
num_leaves=2
num_cat=0
split_feature=0
split_gain=0.325008
threshold=30.036688731471514
decision_type=2
left_child=-1
right_child=-2
leaf_value=-0.023313579950056618 0.015420022931913569
leaf_weight=3.373076505959034 6.055065356194973
leaf_count=18 38
internal_value=0
internal_weight=0
internal_count=56
is_linear=0
shrinkage=0.1


Tree=211
num_leaves=3
num_cat=0
split_feature=1 2
split_gain=0.592836 0.634882
threshold=58.228091436103433 95825.864763530393
decision_type=2 2
left_child=1 -1
right_child=-2 -3
leaf_value=-0.090024497890191846 0.041292382470381216 0.022130076499740567
leaf_weight=1.132522770669312 1.5965012684464452 0.91052088979631651
leaf_count=36 11 9
internal_value=0 -0.0400407
internal_weight=0 2.04304
internal_count=56 45
is_linear=0
shrinkage=0.1


Tree=212
num_leaves=2
num_cat=0
split_feature=2
split_gain=0.391908
threshold=41416.555539775167
decision_type=2
left_child=-1
right_child=-2
leaf_value=0.025353101940709846 -0.027369241245023504
leaf_weight=2.6459356658160686 3.0182080534286797
leaf_count=21 35
internal_value=0
internal_weight=0
internal_count=56
is_linear=0
shrinkage=0.1


Tree=213
num_leaves=2
num_cat=0
split_feature=1
split_gain=0.979544
threshold=31.464383183544751
decision_type=2
left_child=-1
right_child=-2
leaf_value=-0.088028231374176522 0.046766415669550698
leaf_weight=0.84076103626284782 1.5026185493916271
leaf_count=36 20
internal_value=0
internal_weight=0
internal_count=56
is_linear=0
shrinkage=0.1


Tree=214
num_leaves=2
num_cat=0
split_feature=0
split_gain=0.164284
threshold=32.060320349630963
decision_type=2
left_child=-1
right_child=-2
leaf_value=-0.020167465593816936 0.024341839153376631
leaf_weight=1.3873225292190912 2.0615339074283838
leaf_count=21 35
internal_value=0
internal_weight=0
internal_count=56
is_linear=0
shrinkage=0.1


Tree=215
num_leaves=1
num_cat=0
split_feature=
split_gain=
threshold=
decision_type=
left_child=
right_child=
leaf_value=0
leaf_weight=
leaf_count=
internal_value=
internal_weight=
internal_count=
is_linear=0
shrinkage=1


Tree=216
num_leaves=2
num_cat=0
split_feature=2
split_gain=0.301948
threshold=76507.98620565336
decision_type=2
left_child=-1
right_child=-2
leaf_value=-0.013363580343018608 0.023379888584933915
leaf_weight=5.629731647670269 3.7106283456087112
leaf_count=36 20
internal_value=0
internal_weight=0
internal_count=56
is_linear=0
shrinkage=0.1


Tree=217
num_leaves=2
num_cat=0
split_feature=4
split_gain=0.555539
threshold=4.5000000000000009
decision_type=2
left_child=-1
right_child=-2
leaf_value=-0.050064357103807605 0.030006239854470068
leaf_weight=1.502781506511383 2.0465130445081741
leaf_count=33 23
internal_value=0
internal_weight=0
internal_count=56
is_linear=0
shrinkage=0.1


Tree=218
num_leaves=2
num_cat=0
split_feature=5
split_gain=0.357356
threshold=7.5000000000000009
decision_type=2
left_child=-1
right_child=-2
leaf_value=0.017375811809045932 -0.034582633782986753
leaf_weight=3.5067839175462723 2.1263113617897034
leaf_count=19 37
internal_value=0
internal_weight=0
internal_count=56
is_linear=0
shrinkage=0.1


Tree=219
num_leaves=3
num_cat=0
split_feature=5 2
split_gain=0.503751 0.292771
threshold=20.000000000000004 28897.029730708375
decision_type=2 2
left_child=1 -1
right_child=-2 -3
leaf_value=0.0043857669316235935 0.052639251284721855 -0.090576557238590205
leaf_weight=0.66331443190574668 0.98834696505218733 0.6358951450092718
leaf_count=13 14 29
internal_value=0 -0.0420933
internal_weight=0 1.29921
internal_count=56 42
is_linear=0
shrinkage=0.1


Tree=220
num_leaves=2
num_cat=0
split_feature=1
split_gain=0.159292
threshold=-15.279226429801845
decision_type=2
left_child=-1
right_child=-2
leaf_value=0.027926500256546711 -0.015179371292917044
leaf_weight=1.6807110812515023 1.7497783671133218
leaf_count=15 41
internal_value=0
internal_weight=0
internal_count=56
is_linear=0
shrinkage=0.1


Tree=221
num_leaves=1
num_cat=0
split_feature=
split_gain=
threshold=
decision_type=
left_child=
right_child=
leaf_value=0
leaf_weight=
leaf_count=
internal_value=
internal_weight=
internal_count=
is_linear=0
shrinkage=1


Tree=222
num_leaves=2
num_cat=0
split_feature=5
split_gain=0.282238
threshold=13.500000000000002
decision_type=2
left_child=-1
right_child=-2
leaf_value=0.018733562665785224 -0.01612013482773789
leaf_weight=4.634571336209774 4.6589572131633759
leaf_count=30 26
internal_value=0
internal_weight=0
internal_count=56
is_linear=0
shrinkage=0.1


Tree=223
num_leaves=3
num_cat=0
split_feature=1 2
split_gain=0.543975 0.599441
threshold=58.228091436103433 95825.864763530393
decision_type=2 2
left_child=1 -1
right_child=-2 -3
leaf_value=-0.089685876432399281 0.040749782133543522 0.021575068798873401
leaf_weight=1.0537443583598363 1.5544281788170335 0.89598218351602543
leaf_count=36 11 9
internal_value=0 -0.0385567
internal_weight=0 1.94973
internal_count=56 45
is_linear=0
shrinkage=0.1


Tree=224
num_leaves=3
num_cat=0
split_feature=5 5
split_gain=0.383028 3.79578
threshold=6.5000000000000009 9.0000000000000018
decision_type=2 2
left_child=-1 -2
right_child=1 -3
leaf_value=-0.029864904845426012 0.13696601707520281 -0.091755659100048681
leaf_weight=2.676738865673542 1.4508697688579562 1.4514590036123989
leaf_count=14 10 32
internal_value=0 0.022582
internal_weight=0 2.90233
internal_count=56 42
is_linear=0
shrinkage=0.1


Tree=225
num_leaves=3
num_cat=0
split_feature=5 4
split_gain=0.420089 0.294988
threshold=20.000000000000004 4.5000000000000009
decision_type=2 2
left_child=1 -1
right_child=-2 -3
leaf_value=-0.090496303664562155 0.04654645734974279 0.0065868279031898146
leaf_weight=0.60513499670196347 1.0030804770067332 0.64826839999295771
leaf_count=25 14 17
internal_value=0 -0.0402843
internal_weight=0 1.2534
internal_count=56 42
is_linear=0
shrinkage=0.1


Tree=226
num_leaves=2
num_cat=0
split_feature=0
split_gain=0.158117
threshold=32.060320349630963
decision_type=2
left_child=-1
right_child=-2
leaf_value=-0.02012286941254755 0.023737247486201304
leaf_weight=1.3737793732434513 2.0461765169166028
leaf_count=21 35
internal_value=0
internal_weight=0
internal_count=56
is_linear=0
shrinkage=0.1


Tree=227
num_leaves=1
num_cat=0
split_feature=
split_gain=
threshold=
decision_type=
left_child=
right_child=
leaf_value=0
leaf_weight=
leaf_count=
internal_value=
internal_weight=
internal_count=
is_linear=0
shrinkage=1


Tree=228
num_leaves=2
num_cat=0
split_feature=0
split_gain=0.310195
threshold=30.036688731471514
decision_type=2
left_child=-1
right_child=-2
leaf_value=-0.023367579707918081 0.015055698725245509
leaf_weight=3.2699919156730175 5.8778172954916954
leaf_count=18 38
internal_value=0
internal_weight=0
internal_count=56
is_linear=0
shrinkage=0.1


Tree=229
num_leaves=3
num_cat=0
split_feature=4 4
split_gain=0.514691 0.052022
threshold=5.5000000000000009 2.5000000000000004
decision_type=2 2
left_child=1 -1
right_child=-2 -3
leaf_value=-0.020976307328605566 0.040461655066723098 -0.053958272895575171
leaf_weight=0.93229310971219115 1.4914703164249656 0.98190186184365302
leaf_count=18 13 25
internal_value=0 -0.0378947
internal_weight=0 1.91419
internal_count=56 43
is_linear=0
shrinkage=0.1


Tree=230
num_leaves=2
num_cat=0
split_feature=2
split_gain=0.373109
threshold=41416.555539775167
decision_type=2
left_child=-1
right_child=-2
leaf_value=0.026572023381220139 -0.026366780311048284
leaf_weight=2.4843132942914963 2.8686261321417987
leaf_count=21 35
internal_value=0
internal_weight=0
internal_count=56
is_linear=0
shrinkage=0.1


Tree=231
num_leaves=2
num_cat=0
split_feature=1
split_gain=0.911945
threshold=31.464383183544751
decision_type=2
left_child=-1
right_child=-2
leaf_value=-0.087819648950975215 0.045981071173042801
leaf_weight=0.79423944075824726 1.4203311777673659
leaf_count=36 20
internal_value=0
internal_weight=0
internal_count=56
is_linear=0
shrinkage=0.1


Tree=232
num_leaves=2
num_cat=0
split_feature=2
split_gain=0.138972
threshold=76507.98620565336
decision_type=2
left_child=-1
right_child=-2
leaf_value=0.02008220271810994 -0.022201755613344056
leaf_weight=2.2020890363492076 1.2013104148209093
leaf_count=36 20
internal_value=0
internal_weight=0
internal_count=56
is_linear=0
shrinkage=0.1


Tree=233
num_leaves=1
num_cat=0
split_feature=
split_gain=
threshold=
decision_type=
left_child=
right_child=
leaf_value=0
leaf_weight=
leaf_count=
internal_value=
internal_weight=
internal_count=
is_linear=0
shrinkage=1


Tree=234
num_leaves=2
num_cat=0
split_feature=0
split_gain=0.256052
threshold=30.036688731471514
decision_type=2
left_child=-1
right_child=-2
leaf_value=-0.021549032365209123 0.013483714477876836
leaf_weight=3.2481692582368851 5.8326750136911869
leaf_count=18 38
internal_value=0
internal_weight=0
internal_count=56
is_linear=0
shrinkage=0.1


Tree=235
num_leaves=3
num_cat=0
split_feature=1 2
split_gain=0.499384 0.532506
threshold=58.228091436103433 95825.864763530393
decision_type=2 2
left_child=1 -1
right_child=-2 -3
leaf_value=-0.089248596251032458 0.039557673604127194 0.018105667566128057
leaf_weight=0.96579596621450059 1.512813866138458 0.88584432285279036
leaf_count=36 11 9
internal_value=0 -0.0378892
internal_weight=0 1.85164
internal_count=56 45
is_linear=0
shrinkage=0.1


Tree=236
num_leaves=2
num_cat=0
split_feature=1
split_gain=0.324534
threshold=-3.4686392720254946
decision_type=2
left_child=-1
right_child=-2
leaf_value=0.030460041539106142 -0.020514668952475997
leaf_weight=2.0000840490683913 3.325766577385366
leaf_count=21 35
internal_value=0
internal_weight=0
internal_count=56
is_linear=0
shrinkage=0.1


Tree=237
num_leaves=3
num_cat=0
split_feature=5 2
split_gain=0.40432 0.264998
threshold=20.000000000000004 28897.029730708375
decision_type=2 2
left_child=1 -1
right_child=-2 -3
leaf_value=0.0046167048150577844 0.04606783829531666 -0.089878575183036935
leaf_weight=0.61671280604787193 0.97319355979561795 0.57205244642682374
leaf_count=13 14 29
internal_value=0 -0.0408559
internal_weight=0 1.18877
internal_count=56 42
is_linear=0
shrinkage=0.1


Tree=238
num_leaves=2
num_cat=0
split_feature=0
split_gain=0.14086
threshold=32.060320349630963
decision_type=2
left_child=-1
right_child=-2
leaf_value=-0.019932731378592149 0.021599960571360582
leaf_weight=1.371509070042521 2.0182832181453705
leaf_count=21 35
internal_value=0
internal_weight=0
internal_count=56
is_linear=0
shrinkage=0.1


Tree=239
num_leaves=1
num_cat=0
split_feature=
split_gain=
threshold=
decision_type=
left_child=
right_child=
leaf_value=0
leaf_weight=
leaf_count=
internal_value=
internal_weight=
internal_count=
is_linear=0
shrinkage=1


Tree=240
num_leaves=2
num_cat=0
split_feature=5
split_gain=0.24422
threshold=13.500000000000002
decision_type=2
left_child=-1
right_child=-2
leaf_value=0.017594910758904663 -0.015285080240315814
leaf_weight=4.4868922010064125 4.5495757423341274
leaf_count=30 26
internal_value=0
internal_weight=0
internal_count=56
is_linear=0
shrinkage=0.1


Tree=241
num_leaves=2
num_cat=0
split_feature=4
split_gain=0.47592
threshold=4.5000000000000009
decision_type=2
left_child=-1
right_child=-2
leaf_value=-0.04730707529546882 0.029511172144168721
leaf_weight=1.4131585824070501 1.8786788948345927
leaf_count=33 23
internal_value=0
internal_weight=0
internal_count=56
is_linear=0
shrinkage=0.1


Tree=242
num_leaves=2
num_cat=0
split_feature=2
split_gain=0.327028
threshold=33529.196251915528
decision_type=2
left_child=-1
right_child=-2
leaf_value=0.028727106420369294 -0.021768578967318965
leaf_weight=2.16269651055336 3.1515172035433352
leaf_count=18 38
internal_value=0
internal_weight=0
internal_count=56
is_linear=0
shrinkage=0.1


Tree=243
num_leaves=2
num_cat=0
split_feature=1
split_gain=0.823516
threshold=31.464383183544751
decision_type=2
left_child=-1
right_child=-2
leaf_value=-0.087456532341499429 0.043343625844802058
leaf_weight=0.73538004100555587 1.3933864133432505
leaf_count=36 20
internal_value=0
internal_weight=0
internal_count=56
is_linear=0
shrinkage=0.1


Tree=244
num_leaves=2
num_cat=0
split_feature=1
split_gain=0.13467
threshold=-15.279226429801845
decision_type=2
left_child=-1
right_child=-2
leaf_value=0.025265901295392457 -0.014635955038001689
leaf_weight=1.6666902974247935 1.7174085220322011
leaf_count=15 41
internal_value=0
internal_weight=0
internal_count=56
is_linear=0
shrinkage=0.1


Tree=245
num_leaves=2
num_cat=0
split_feature=5
split_gain=0.286711
threshold=18.500000000000004
decision_type=2
left_child=-1
right_child=-2
leaf_value=-0.085699669518543631 0.035826003928116364
leaf_weight=0.29334724752698094 0.5740300202742219
leaf_count=39 17
internal_value=0
internal_weight=0
internal_count=56
is_linear=0
shrinkage=0.1


Tree=246
num_leaves=2
num_cat=0
split_feature=2
split_gain=0.236338
threshold=60886.324891688557
decision_type=2
left_child=-1
right_child=-2
leaf_value=-0.018451671024029732 0.014498663515996452
leaf_weight=3.7134410366415977 5.2603073511272669
leaf_count=27 29
internal_value=0
internal_weight=0
internal_count=56
is_linear=0
shrinkage=0.1


Tree=247
num_leaves=3
num_cat=0
split_feature=1 5
split_gain=0.456119 0.505833
threshold=58.228091436103433 17.500000000000004
decision_type=2 2
left_child=1 -1
right_child=-2 -3
leaf_value=0.0099791581232517232 0.037916467841580211 -0.097538029430062706
leaf_weight=0.99256825458724074 1.4684747904539106 0.78256948012858629
leaf_count=26 11 19
internal_value=0 -0.0374198
internal_weight=0 1.77514
internal_count=56 45
is_linear=0
shrinkage=0.1


Tree=248
num_leaves=2
num_cat=0
split_feature=5
split_gain=0.340752
threshold=7.5000000000000009
decision_type=2
left_child=-1
right_child=-2
leaf_value=0.018991143983105474 -0.033645668008692807
leaf_weight=3.3465031608939171 1.9444822072982786
leaf_count=19 37
internal_value=0
internal_weight=0
internal_count=56
is_linear=0
shrinkage=0.1


Tree=249
num_leaves=3
num_cat=0
split_feature=5 4
split_gain=0.37889 0.255824
threshold=20.000000000000004 4.5000000000000009
decision_type=2 2
left_child=1 -1
right_child=-2 -3
leaf_value=-0.090154138502511638 0.044780462649755458 0.0046312344310144148
leaf_weight=0.54712188750272639 0.94555390067398537 0.59377187420614064
leaf_count=25 14 17
internal_value=0 -0.0408236
internal_weight=0 1.14089
internal_count=56 42
is_linear=0
shrinkage=0.1


Tree=250
num_leaves=2
num_cat=0
split_feature=0
split_gain=0.140529
threshold=32.060320349630963
decision_type=2
left_child=-1
right_child=-2
leaf_value=-0.020851743946136828 0.020828340493448238
leaf_weight=1.3561002989299598 2.0048190583474934
leaf_count=21 35
internal_value=0
internal_weight=0
internal_count=56
is_linear=0
shrinkage=0.1


Tree=251
num_leaves=1
num_cat=0
split_feature=
split_gain=
threshold=
decision_type=
left_child=
right_child=
leaf_value=0
leaf_weight=
leaf_count=
internal_value=
internal_weight=
internal_count=
is_linear=0
shrinkage=1


Tree=252
num_leaves=2
num_cat=0
split_feature=0
split_gain=0.228777
threshold=30.036688731471514
decision_type=2
left_child=-1
right_child=-2
leaf_value=-0.020640462809969864 0.012774534870360158
leaf_weight=3.1893657892942429 5.7301854770630598
leaf_count=18 38
internal_value=0
internal_weight=0
internal_count=56
is_linear=0
shrinkage=0.1


Tree=253
num_leaves=2
num_cat=0
split_feature=0
split_gain=0.500499
threshold=51.476896216046597
decision_type=2
left_child=-1
right_child=-2
leaf_value=0.024233143848067656 -0.060896141487035399
leaf_weight=2.1775257025146861 1.0114125345135105
leaf_count=33 23
internal_value=0
internal_weight=0
internal_count=56
is_linear=0
shrinkage=0.1


Tree=254
num_leaves=2
num_cat=0
split_feature=1
split_gain=0.425975
threshold=-6.8629875123233992
decision_type=2
left_child=-1
right_child=-2
leaf_value=0.037879349620085913 -0.021775654960322591
leaf_weight=1.8516651582904158 3.385526561178267
leaf_count=18 38
internal_value=0
internal_weight=0
internal_count=56
is_linear=0
shrinkage=0.1


Tree=255
num_leaves=2
num_cat=0
split_feature=1
split_gain=0.747158
threshold=31.464383183544751
decision_type=2
left_child=-1
right_child=-2
leaf_value=-0.087230210273417319 0.040593799094439144
leaf_weight=0.68792742473306168 1.3639309229329226
leaf_count=36 20
internal_value=0
internal_weight=0
internal_count=56
is_linear=0
shrinkage=0.1


Tree=256
num_leaves=2
num_cat=0
split_feature=2
split_gain=0.118451
threshold=76507.98620565336
decision_type=2
left_child=-1
right_child=-2
leaf_value=0.018171856123436796 -0.021093298861915872
leaf_weight=2.1593966963700955 1.1926015131175516
leaf_count=36 20
internal_value=0
internal_weight=0
internal_count=56
is_linear=0
shrinkage=0.1


Tree=257
num_leaves=2
num_cat=0
split_feature=1
split_gain=0.285132
threshold=20.564680911492911
decision_type=2
left_child=-1
right_child=-2
leaf_value=-0.085235994960102882 0.036877736519125612
leaf_weight=0.29176829280913807 0.55481389403576031
leaf_count=30 26
internal_value=0
internal_weight=0
internal_count=56
is_linear=0
shrinkage=0.1


Tree=258
num_leaves=2
num_cat=0
split_feature=5
split_gain=0.22691
threshold=13.500000000000002
decision_type=2
left_child=-1
right_child=-2
leaf_value=0.016684847256487945 -0.015317227303647339
leaf_weight=4.4217348042875528 4.4408479444682598
leaf_count=30 26
internal_value=0
internal_weight=0
internal_count=56
is_linear=0
shrinkage=0.1


Tree=259
num_leaves=2
num_cat=0
split_feature=5
split_gain=0.462048
threshold=13.500000000000002
decision_type=2
left_child=-1
right_child=-2
leaf_value=-0.05078110737894459 0.027706817956328109
leaf_weight=1.217402770649642 1.9536999021656809
leaf_count=30 26
internal_value=0
internal_weight=0
internal_count=56
is_linear=0
shrinkage=0.1


Tree=260
num_leaves=2
num_cat=0
split_feature=1
split_gain=0.353622
threshold=-6.8629875123233992
decision_type=2
left_child=-1
right_child=-2
leaf_value=0.034675121223143195 -0.019649191149213555
leaf_weight=1.8588109076954422 3.3719355091452599
leaf_count=18 38
internal_value=0
internal_weight=0
internal_count=56
is_linear=0
shrinkage=0.1


Tree=261
num_leaves=3
num_cat=0
split_feature=5 4
split_gain=0.377202 0.230117
threshold=20.000000000000004 4.5000000000000009
decision_type=2 2
left_child=1 -1
right_child=-2 -3
leaf_value=-0.090063367558970653 0.045286276576884804 0.0015593249850044952
leaf_weight=0.51833648985484637 0.91507162805646647 0.58181295800022781
leaf_count=25 14 17
internal_value=0 -0.0416088
internal_weight=0 1.10015
internal_count=56 42
is_linear=0
shrinkage=0.1


Tree=262
num_leaves=2
num_cat=0
split_feature=0
split_gain=0.119462
threshold=32.060320349630963
decision_type=2
left_child=-1
right_child=-2
leaf_value=-0.019190489477918925 0.01934986917481887
leaf_weight=1.3515320648439231 1.9861936490051446
leaf_count=21 35
internal_value=0
internal_weight=0
internal_count=56
is_linear=0
shrinkage=0.1


Tree=263
num_leaves=1
num_cat=0
split_feature=
split_gain=
threshold=
decision_type=
left_child=
right_child=
leaf_value=0
leaf_weight=
leaf_count=
internal_value=
internal_weight=
internal_count=
is_linear=0
shrinkage=1


Tree=264
num_leaves=2
num_cat=0
split_feature=1
split_gain=0.241172
threshold=20.564680911492911
decision_type=2
left_child=-1
right_child=-2
leaf_value=0.014801724858029509 -0.01867213375135986
leaf_weight=5.1259665172547102 3.710280779749155
leaf_count=30 26
internal_value=0
internal_weight=0
internal_count=56
is_linear=0
shrinkage=0.1


Tree=265
num_leaves=3
num_cat=0
split_feature=1 2
split_gain=0.391819 0.502542
threshold=58.228091436103433 95825.864763530393
decision_type=2 2
left_child=1 -1
right_child=-2 -3
leaf_value=-0.088872282378708936 0.035759163114106096 0.019545726644207881
leaf_weight=0.86282208748161815 1.4314500764012335 0.8474464388564229
leaf_count=36 11 9
internal_value=0 -0.0351506
internal_weight=0 1.71027
internal_count=56 45
is_linear=0
shrinkage=0.1


